a8d2ecf60fdd49638934de0768b026a3.jpg	1.2941465 -2.2848103 1.0000199 0.12701216 -0.2779487 -0.8314257 0.7499943 -0.5769194 1.5815136 0.45133853 -0.7152746 0.89707875 -0.5486563 0.61826503 -0.7322421 -0.25205737 1.1284811 0.94701517 -1.5925415 0.059841003 -0.22034742 0.32392117 0.6274135 1.1913877 -1.6164567 -0.51033455 -0.07366182 -0.93384403 0.7327836 -0.4145029 0.39329457 1.2902926 -0.15657485 1.1313134 -0.78403026 -2.5575492 -0.52596605 -0.89603424 -1.1675236 -0.074497394 -1.1187261 -0.09891702 0.69370174 -1.0143745 1.6376953 0.09077917 -0.5624685 -0.42947572 -0.63268435 0.5445378 -0.91192603 -0.91392356 1.9190361 0.5790457 -0.5465285 -1.4990253 0.009367362 -0.15460712 0.4882701 -1.464446 0.69304955 -0.07486284 -1.2689106 0.3901953 -0.6751866 -1.4326384 -0.8374986 1.1525891 -0.50455475 2.6444793 -0.04335656 1.4565077 -0.3480525 -0.6399419 -2.0618644 1.0914972 1.8413222 -0.35116902 1.0254834 -0.42031977 0.32643393 -0.54140687 0.492875 0.32092005 0.27529907 0.09563611 -2.2045565 0.7532457 -0.13251498 -0.10383258 0.57406306 0.5878805 -0.8410748 -1.2877249 -1.165935 2.2269282 -0.8663494 1.2708077 0.8854268 -0.16384555 -0.036347985 0.6102257 -0.92759 2.1804054 0.12664339 -0.47876498 -0.73759705 0.5897637 0.21245807 0.7127074 -0.37233642 1.2228245 -0.39100415 0.1207489 -0.19093028 1.1947674 -0.46068606 -0.52793443 -0.5992545 0.5987877 0.098856606 1.2936497 0.76584685 -0.42503032 0.45683318 1.0677722 0.3364429 -0.20120417 -1.4211696 1.2291907 2.0748374 0.7270454 0.018162213 -0.8892288 -1.5494919 1.4917705 -0.9991031 0.21104294 1.0428054 1.1211642 0.9239135 -0.32568312 0.19955891 0.839984 -0.79070735 -0.36720318 0.6228396 -0.40795693 -1.0732087 0.65860623 0.11117211 -1.530649 1.8776314 -0.22325818 -0.91513526 0.12605731 -0.8543708 -1.4645164 -0.091992855 -0.48806384 0.6071737 0.10209805 -1.5929166 -0.38795322 -1.188357 0.36451828 0.85763097 0.44701666 0.4810979 1.2396646 -0.57293576 -0.38631445 -0.8125984 0.39713076 0.077683635 0.6636441 0.8206527 0.7046401 -1.368508 0.09805004 -0.12928092 -0.29654548 0.19892254 1.2828686 -0.01921089 0.14555082 -0.8270291 1.2145975 -0.3072075 -0.15125446 0.5613639 0.8418937 1.3151336 0.719881 0.12444435 -0.71846986 0.030414797 0.8103385 1.466644 0.96103704 -0.8082803 -0.49873722 -1.4855926 0.8728806 -1.0133407 0.658826 0.8685758 -0.83833987 1.7583972 0.40290177 0.81177545 0.19339095 0.1296791 0.94280535 0.40903363 0.1967962 -1.9184686 -2.189111 0.6043333 0.23694554 1.106474 0.07542731 0.01726154 0.7088397 -0.23521926 1.0881935 0.92204535 0.69237053 -0.09778947 0.04243333 -0.14543328 -0.85536826 0.95925444 0.70109916 -0.15941939 0.17547813 -0.77239645 0.7769747 0.09906417 0.28546083 -0.09491175 -0.052070037 -1.9646127 -0.95509833 -0.08331231 1.0802188 0.24948749 0.40597945 -0.013269588 -1.8065705 -0.17622387 0.43823832 1.0124248 -0.5676812 -1.1730165 0.11658195 0.098240465 3.0936296 0.21650812 0.10557462 -0.27100763 0.47786722 0.643492 -0.97727513 -0.014439784 -0.93333066 -0.19923261 -0.19043806 -1.0014656 0.038226575 1.4636838 0.179142 1.0494199 0.2845444 0.46048325 1.2311018 0.29610384 -0.280962 0.24355447 0.9403699 -0.1338115 1.4080317 0.92394453 0.22120047 -0.7723462 -0.8149901 -0.7358853 0.4741117 -2.6378527 0.8774045 1.0335997 -1.5012498 1.2208498 -0.6128299 -0.77322936 0.51363635 -1.575387 2.6024954 0.108438775 0.7787132 1.0521146 0.113138355 -0.66207814 2.050056 -0.8867948 1.8590008 1.0393323 0.49032807 2.0090766 0.32204044 -0.5185215 0.06460731 -0.38832906 0.34941328 -0.5075359 -0.13481902 0.11050844 -2.4595468 0.008487135 -1.0804075 0.34105295 -2.9037418 0.60734963 1.1089257 1.1587317 0.2827978 -0.5927777 -0.064203545 -0.4764381 -0.3652117 0.68029636 -1.0770583 -2.283316 -0.45542216 -3.3691525e-05 0.3834311 -1.3322169 0.8098611 0.46900767 0.2603049 0.08056614 -0.19530746 -0.050519425 -2.510149 -2.0900414 0.117218874 -2.2023823 -0.6696819 0.0037673633 -1.8786025 -0.277675 -0.4011725 -0.43430144 -0.32583237 -1.0162838 -1.1545937 0.9490323 0.93410456 -0.50798476 -0.9365646 0.3684408 -0.73072606 -0.6552354 -0.8251085 0.54442286 -1.544977 -0.31228065 0.8931854 0.23284757 0.08205418 -0.76712334 -0.32344133 -1.3557441 0.9845508 1.2755984 -0.30981702 -0.47979945 0.62696326 -0.22129357 1.0548065 -0.28514707 0.39126363 0.04287674 -0.22634521 0.99801254 -0.97367 -0.20592253 -0.22661221 -0.79727006 -1.1440557 -0.503918 0.50061226 -0.6940225 -1.299911 1.4175371 -0.5946184 -0.53457403 0.5580534 -0.7753375 -0.9600281 -0.000999555 -0.74475753 1.1468512 -0.95565945 0.38355815 -0.4311459 -0.7257718 0.16610876 0.41472667 0.34352222 -0.7601636 0.9362087 0.8875396 0.079290405 -0.7212251 -0.8043542 0.11901456 0.2368362 -0.66432697 -0.8167764 -1.5044776 -0.5213358 1.9615906 -1.7442617 -2.2145371 0.4360422 0.76922107 0.53158265 -0.79023695 -0.009405501 -0.18042707 1.9072665 -0.26559278 0.8377384 -2.019544 -0.58197796 1.6377845 -0.113134444 -1.5355595 1.2310306 0.7122035 -1.718204 -0.9476402 -0.09685365 -0.33916813 -1.545462 -0.9045167 -0.32803315 0.13664186 0.4413453 -0.2581589 -0.6478071 -1.4634851 0.47437274 3.6930027 0.4440613 -0.59602255 -1.3206689 -0.76654726 -0.5230952 0.9544778 -1.1222821 1.4097003 -0.26747623 1.2297403 -0.4961483 -0.88655496 -0.011748098 -0.56055725 0.035914816 -1.3543824 -0.6013553 0.25339705 -1.1271274 -0.78755075 -0.10531972 -1.0091639 1.3979911 0.03784007 1.2733822 -0.17014827 -0.89654696 -0.22204466 -0.34995365 0.09215661 0.35094443 1.238472 1.5452607 -1.659737 1.7636114 -0.008113045 -0.23870844 -1.4090792 -0.2962615 -0.12409716 -0.65298724 -0.50635785 -0.32496196 -1.2211978 -0.674512 -0.4868189 0.93780726 0.13792706 2.042892 -0.86287886 1.8862458 2.0506003 -0.72146416 1.3225837 0.09873154 -0.6191645 -1.0655254
bb44bbe7606b41659d8826a566a7036a.jpg	-0.1588783 -2.0652351 -0.068576515 0.71353984 -0.74511176 -0.7137579 -1.4464393 0.55843973 1.5643588 -0.31848973 0.43038237 -0.11629989 0.80867195 1.6129204 0.09476103 -0.5310436 0.81795305 1.6714007 1.0074835 -1.2447366 1.1979144 -0.6183993 0.10758406 -0.05135709 -0.3241521 0.08894569 0.010182843 -0.4818051 -1.5509217 1.0279411 -0.8908785 0.4793843 -0.40467128 -2.0225239 1.1753768 0.06773756 -0.5345279 0.3167074 -0.4916714 1.7923081 3.0437267 1.4242333 0.46719447 0.5216879 -0.46739283 0.7934521 0.53261024 3.078101 -0.91584206 -1.0156503 -0.74301606 -0.60574704 -0.0650163 -0.4063318 2.5884964 0.66266084 1.6519976 -1.8357313 -0.9302206 -1.0862207 -0.17366311 1.4597927 0.29656217 -0.7380795 -2.0986102 -0.5865625 1.1439283 -0.33268264 1.3811126 -1.5969263 1.381692 1.5532525 -1.4119934 1.436504 -0.14077988 1.4174405 1.4926875 -0.7730456 0.9195947 -2.1345026 0.23582676 -0.44769025 -0.8953038 -0.5009329 0.1098025 0.44870633 -0.84281707 -0.80272347 -0.6052405 0.40381756 -1.90009 2.240374 -0.4147385 -0.8081932 0.89875513 1.6484206 -2.1741362 0.30211678 -0.2522614 -1.6188153 -0.4303177 -0.4120792 0.7155703 0.3831575 -0.5124575 -0.40061748 -0.5683727 0.46297 -0.5574398 0.8574456 0.6636421 -1.1046106 1.664921 0.6985574 0.02001506 0.17622215 0.2606855 -1.0874256 -0.21000981 0.039842084 -0.40312076 1.8139541 -0.24196863 1.4062839 -1.820962 0.09271684 0.6499847 -0.07897444 -1.719373 -0.14752081 -0.84957683 -0.5558599 -1.1077156 -1.643786 -2.178677 -0.93647856 -0.4925682 0.4690839 0.4354744 -0.8132806 -0.14226115 -1.8759918 0.7571938 0.15779838 -1.9181758 -0.800445 0.481825 0.22781917 0.97814244 -0.36743 -0.9140704 -0.5707994 0.37773663 0.4125772 0.0530632 0.2764328 -0.8225511 -1.011237 0.85927343 0.3152372 -0.5065147 -1.5236046 0.75705004 0.8202754 -0.4892318 -0.056791 0.5636603 1.4820818 -0.14565644 0.9263201 0.5220368 0.35125396 0.12507561 0.2601173 0.74166185 0.79202545 0.4151923 0.75528526 0.5591444 -0.4122326 1.7667639 0.8072921 -0.65304947 -0.4039957 1.2884934 1.7156031 -0.31449634 -0.42089882 2.6215582 0.83921415 -1.8771865 1.5267727 -0.12651315 1.0600879 -3.6372478 1.0454543 1.5055094 1.4207108 0.5860471 1.0489908 -0.32005838 2.250234 -1.0780799 0.30898702 0.81245905 -0.3122641 -1.3117005 0.12829801 1.8611056 -1.0833263 0.78201085 -1.7691891 1.3275363 1.314729 0.1846838 -0.33669347 -0.045501232 -2.5938492 -0.08498395 1.4182198 -0.24345016 -0.5276138 -1.9811935 -0.3151103 0.6664067 -0.46708146 0.554826 1.0245243 0.22932887 -0.89206856 -1.6503582 -0.16955188 -0.7341845 -0.20301822 -1.2270384 -0.07707053 -1.2581463 -0.37623385 -0.30710697 -0.75867003 -1.3324943 1.9686513 0.9306987 1.7784077 2.3358433 0.55936 -0.5609695 0.50259423 0.2570565 0.8528057 0.41300684 1.2682363 0.73616904 0.9295769 -0.89032096 -0.027117267 -0.25766847 0.027359992 0.9614837 -1.4598078 -0.32721132 0.935013 0.9168874 0.92071044 0.5661632 -0.6869329 -0.7400536 -0.918754 -1.317777 -1.4729656 1.0427408 -1.1476742 0.45854914 0.57057244 1.4030769 -0.9857746 1.5438073 -0.8441957 -1.5133456 1.0098529 -0.6615395 1.9837432 0.101674825 0.963932 0.6472204 0.46763682 0.80043125 0.6037222 0.5317476 0.605358 -2.1208081 0.020970345 -1.5682905 -0.5049007 -0.49211884 0.20313153 0.33585113 2.9789803 -0.49363625 -0.03066507 -3.076657 -0.19196668 -0.6437858 -0.1465058 -2.2668538 -0.10532287 1.0470792 0.89026546 0.081379265 0.75446266 -0.14033738 -0.5665674 -1.7803408 -0.7070101 1.2030345 0.76884913 -0.4990683 -0.29155764 -1.004153 -0.6178077 1.3003157 0.4914807 -1.0823988 0.276151 -0.3892035 1.8921626 -0.5186856 -0.61266553 -0.1560101 0.95688796 -0.22523162 -0.053725168 -1.6297896 -1.8344045 -0.8459329 0.7641393 -0.20955954 -0.83351284 0.2173316 0.6411388 -2.829857 -0.04390396 -0.396378 -0.9755789 0.8654643 -0.49377462 -0.027360775 0.17918536 0.18622941 -0.61166984 -1.0115113 0.55416924 -0.14875664 -0.10394369 -0.34981397 1.3015926 0.906653 -0.12908928 -2.810018 -0.49559325 -0.69329333 -0.9346348 0.25485083 0.94056207 -0.101982385 -0.32228634 0.2799133 -0.40759957 -0.9991517 -1.9313056 -0.39715827 2.8690028 -1.2656609 2.0611794 0.7941283 0.93765914 0.1287322 -1.2986366 0.69053245 -1.340503 0.9952663 1.005693 0.32776326 -0.71168464 -0.39744383 -0.20371051 -0.10815454 -0.780828 1.9415178 -1.4343897 0.10288388 0.364806 -1.9199755 -0.08226816 -1.525201 1.0147302 1.609889 -0.6684528 1.7330348 0.24407044 0.5867131 0.01446164 1.0717983 0.28470886 0.9905943 0.0072627105 0.38520214 1.2565545 -0.19814736 0.16792092 0.028343063 0.05616325 -0.7047071 -0.7961211 -0.48028347 -0.024219237 -0.31482184 1.0370748 -0.38484728 0.96091324 -0.97505754 -0.59072584 -0.54383075 2.4142592 -1.776724 -1.4568863 -0.16285813 0.8602335 0.24428657 0.05679166 -1.2391866 0.4477073 -3.3685381 1.0671093 -0.95786536 0.70367074 0.597988 0.42306817 -0.027639523 -0.2882349 -0.051091082 0.58158493 -0.25532988 1.9645772 -0.61435753 1.8000042 -0.9011198 -0.16121025 -0.6519155 0.24015462 -0.15187371 -1.1182772 -0.9889624 0.98238045 2.47012 -0.16998583 0.8419857 -0.110582486 -0.12760797 -0.5842668 0.9145943 -1.1723226 -0.22060937 0.91912293 -2.4907048 -1.5301318 0.009928301 -0.9174527 1.3728577 -0.02170388 1.5316014 -0.85450107 -0.49110878 -0.24782841 -0.33407885 -0.12951277 1.882705 0.8196645 0.48236004 -0.9521733 -2.5047412 -2.004341 1.4536747 1.8833057 0.9332467 -0.28732756 -0.0024739802 -0.6424007 -2.196679 1.0350115 0.90005344 -0.67462873 -1.1069785 0.13517058 1.0367284 -0.72562397 1.2248884 1.1804174 1.499848 1.574595 -0.05410798 1.2334096 0.79650545 -0.39776874 0.6025651 -0.44324222 -0.8182142 -0.45012465 -2.627892 -0.33249268 0.63534665 0.79496247
61e99623ae06469c8dcd81c388e92cee.jpg	1.3699796 -0.63400006 0.63844275 1.5621467 -0.47698894 -0.91516775 0.48455757 -0.46482342 1.6265142 1.4085199 -1.5428133 1.3453318 -0.7691969 0.6055511 -0.5767688 0.06834063 0.6229397 -0.887347 -1.3998069 -0.52312136 -1.2500123 0.9662567 0.37232798 1.8356892 -0.80359644 0.29285553 -0.20468013 -0.1969347 0.4761775 0.9508717 0.61636776 -0.18997905 -1.2974327 1.024541 -0.33245414 -1.8330317 0.29927078 -1.2333958 -0.72703063 0.27031642 -1.3506966 -0.93943405 1.2373797 -0.9723443 1.3300039 0.9672099 0.039427847 -2.3374753 -0.01593519 0.79861045 -0.55341095 -1.4813385 2.1061037 0.5259495 -1.2253047 0.18921906 -0.67721033 0.17258917 0.4800892 -1.6144999 1.2076441 -0.37452313 -1.3358028 -0.48864594 1.9396865 -0.27884272 -0.002246011 2.6419444 0.07663581 2.3981278 0.056875028 1.0942539 0.28586933 -0.05582476 -1.4323484 1.6339029 0.6712544 -0.4826169 -0.82193035 -0.74239445 0.7843042 -0.42142105 -0.13210121 -0.48644036 0.68148315 -0.8240922 -1.0634904 1.623804 -1.3327242 0.8100702 0.94262826 0.2995407 -1.1148967 -1.1805512 -0.3903193 2.2825239 -0.113340065 1.2962377 0.8973007 -0.6827184 -0.062112436 0.86739147 0.3809206 1.4471867 0.1854702 -0.2066961 -0.65874004 1.5736804 1.4291296 1.4288249 -0.027121555 1.4389349 -0.023050047 1.1348147 -0.2149252 1.2262459 0.17192057 0.37957406 -0.46044475 0.27636153 0.1656624 0.25444618 1.5372827 -0.27853265 1.3551805 1.1062214 -0.8236695 -0.75340056 -1.8608584 0.47956392 1.2652565 0.4759119 -0.5847802 -0.5197402 -1.6010541 0.34259588 0.07174337 -0.42272416 0.752519 -0.008587688 0.3334722 -0.30352277 -0.6804923 0.9725107 -1.0994521 -0.24573974 0.107217014 -0.99774647 -1.2975175 -0.20609245 1.2925864 -0.58747375 1.0565662 -0.9575898 -0.6792545 0.7659397 -0.110093035 -2.8955529 -0.25142875 0.8649876 0.39816314 1.3358339 -0.94256604 0.48878187 -1.2442415 -0.29546326 1.3362992 -0.9782069 0.60041547 1.2190932 -0.00872995 -0.73157513 -0.4130022 -0.12730497 0.17888692 -0.30144256 0.7951996 -0.39044315 -1.1616924 -0.19833574 -0.37035257 -0.1682915 1.3205465 1.1061537 0.5302583 1.6410034 -1.9314222 2.1393409 0.82989705 -0.108946085 -0.33640945 1.2346501 1.7691795 -0.08587732 0.9395513 -0.43197668 -0.609158 1.2678839 1.464731 0.30333704 -0.95535177 -0.03466381 -1.4217945 -0.044192582 -1.2925655 0.4659403 0.17586862 0.63000035 2.2528007 1.2780498 -0.22148591 -0.75973845 0.0065091997 1.3317072 -0.8790391 0.15880485 -2.5647302 -1.7987312 0.4288128 0.25373727 0.8750758 1.4298767 0.93169737 -0.04900582 -0.061490707 0.07990375 0.66483337 -0.104752414 0.3501016 0.504057 -0.033984605 -1.128022 2.2115948 1.0826049 0.65105027 0.5164818 -0.30661538 0.8885356 -0.8638913 0.921738 -0.85123515 0.19415137 -0.8154144 -0.081861556 -0.15209416 0.018512588 -0.7492908 -0.591411 0.9191754 -1.927166 -1.8500717 0.8503399 2.3101764 -1.1751208 -0.11434059 -0.6052596 0.25600773 2.1193635 -0.33454025 -0.108645156 -1.0394136 1.7358633 0.6504201 -0.8174154 -1.0471487 -1.8467765 0.566766 0.14609432 -0.19337022 0.49359134 0.6920652 -0.87625974 -0.8924758 0.31856036 -0.2991317 1.363718 -0.7147132 -0.5979521 0.17349404 0.34872705 0.5003874 0.023282282 -0.50624025 0.14621672 0.20683613 -0.29355228 -1.0533084 0.47029242 -2.541391 -0.5119728 1.4136463 -0.42363995 0.097487345 -0.93242586 0.9065441 0.27891943 -1.9274676 1.8907033 -0.5311109 2.2015224 -0.07770532 0.33617344 -0.4482059 1.9066579 -0.8898752 1.2916329 -0.77352154 0.19929361 1.1256216 -0.071161464 -0.42173022 -0.0999931 -0.27386078 0.10475977 -1.0929202 -0.53067154 -0.1262883 -2.4463785 1.1317466 -1.2125998 -0.1585846 -1.8052212 0.90697336 0.8566137 1.386431 0.25810334 -0.9144332 0.52661663 0.7481063 0.6484324 0.6968805 -0.73227805 -1.3149343 0.02317182 0.6179467 0.37127057 -0.642073 0.47994125 0.0062804297 0.64192253 -1.1474531 -1.0201426 0.088642225 -0.94143224 -1.2681715 -0.1871643 -0.81764114 -0.53540474 0.77722716 -1.7973866 0.81517905 -0.6651299 -0.31037378 0.35531396 -0.70122814 -0.391199 2.0066726 0.72545344 0.061622426 -1.1141475 -0.21900937 -0.40763032 -0.10400337 -0.71573704 -0.7395449 -1.1427264 -1.7929587 1.1791987 -0.4454385 0.5328394 -0.8774566 -0.24911931 -1.1193821 1.0586513 1.262542 0.08498953 0.54433686 0.57454616 -0.2878594 0.78199786 -0.86085075 1.285208 -0.54550934 -0.23553537 0.387295 -1.0040007 -0.6137478 -1.3776896 -1.2135813 -0.504216 -0.72442204 1.4811119 -0.8131668 -0.48909378 -0.56092775 0.11922872 0.0911952 0.70491195 0.03493029 -1.0796709 -0.30601948 -0.015370119 -0.9416081 -0.23971002 0.4399409 -1.6454676 -0.40302965 0.18565914 0.7127135 -0.6820787 -0.9178446 0.57718545 1.1565294 -0.30145818 -0.32183227 0.48267892 0.19017763 0.13522346 -0.60635185 -0.7230088 -0.61537886 -0.5245459 1.8144048 -1.2040819 -1.9670885 -0.7738981 0.12597331 -0.7961454 0.40439078 0.035073765 -0.18942016 1.0372081 0.16623454 1.1506159 -1.3636044 -1.2558464 1.0506864 -0.23004621 -1.5820553 1.5082194 -0.76278853 -1.6076635 -0.6186533 0.63919336 0.102448344 -1.5986341 -1.7756807 -0.48300034 0.21133305 0.9482411 -0.67269707 -0.53954756 -1.5700848 0.81781363 2.4959335 0.9217068 -0.19284977 -1.3420075 -0.22859013 -0.08950377 -0.5377438 -1.8988814 0.6782252 -0.8917377 1.6346886 -0.85498536 0.024191499 0.525773 -1.108871 0.6742523 -0.61827207 -0.16703151 0.42661613 -1.3270966 -0.4356953 0.18510109 -1.1011844 0.4114849 0.43475476 0.41615042 -0.7246469 -0.5836429 -0.703388 0.26309547 -0.30774063 1.0372951 1.1996171 1.7428219 -1.4629864 3.4617872 0.20104136 -0.08949794 -0.3874864 0.17111215 -0.022944711 -0.65671444 -0.41728494 -0.32999146 -0.29678297 -1.2991128 -0.19665207 -0.10104442 -0.08151912 1.5963925 -0.319934 2.387476 1.699644 -1.0697347 0.7996007 0.3350762 -0.5185647 -0.8123346
5e4fdf7d60b042d8ae5ab2487e71797d.jpg	0.18001544 1.5455909 1.0550718 -0.5926838 0.54908246 0.13710064 0.00547109 -0.9252473 -0.9522157 0.3531899 -0.13990405 -1.1168059 0.6309284 -0.22786963 1.0299925 1.1701525 0.6525915 -0.9512764 0.9543796 -1.4398781 -1.9595096 -2.6186075 -1.4732434 -1.1065832 -0.31264037 -0.10331087 1.0697702 -1.2918032 1.1102533 1.6713808 -0.82728386 -0.7676124 1.1897055 -0.43842626 0.9933579 -1.6136307 0.949372 2.3246653 -0.75871813 1.4804881 -1.8013216 -2.208338 1.4358195 0.5253394 -1.2683604 1.1217661 1.1119314 -0.6029595 -1.1815339 1.2940049 0.8691065 0.48221403 0.44489655 -0.88137436 1.014252 -0.22133875 0.331586 0.606808 -1.6428057 1.4987915 0.059274346 0.5422135 -1.3585258 1.0158916 -1.4356428 0.45217207 -0.93918645 0.8203598 0.63315165 0.12173705 0.98043185 -0.37992343 0.23646683 -0.009213423 -0.4220658 -0.7769895 0.32318568 0.31051943 0.81921893 -0.41778085 -0.40165603 1.1284326 1.8158698 3.2495942 -0.5519802 0.057109557 -0.23971704 0.6063311 0.06591246 1.9891499 -0.8862901 -1.1018798 -1.0392177 -0.68486106 0.5642538 -0.24794358 0.7318518 1.1135216 1.5341896 -0.5851077 -1.4210478 0.80265725 -1.0240089 1.1636275 -0.41292477 0.18813059 -0.43308178 -2.016479 -1.6820145 1.4339128 -0.2779472 0.18935007 -1.7553126 1.4965804 -0.15770194 0.77742416 1.0035261 -0.37760982 -0.20574313 -1.387378 -3.9604852 -1.0380924 2.1336281 0.10106746 -1.445701 0.08525209 -0.26268834 0.98272026 0.6834379 -0.8327861 2.5322556 0.441045 -1.9444358 -2.3278005 0.5030032 -1.1388857 1.0529372 1.1952658 0.5623569 -2.3082223 2.3024201 -1.0340854 0.5251185 -0.84626883 -1.0544422 -0.0009869486 -0.16193527 0.28414753 0.14883097 0.27204266 -0.24239981 -0.24194413 -0.46731794 0.016609933 -0.37802988 1.1647692 1.0003102 -2.0490322 -0.71498144 -0.27383512 0.6736743 0.22699596 0.6097709 -1.5970378 -2.0196345 0.6368661 0.84080255 1.093309 -2.2239923 -0.032506894 -0.6897137 -0.19210033 3.2223277 0.76196265 -1.5411823 2.099246 -1.2807735 0.2660817 -1.4247135 -1.5448568 -0.5062953 0.77288276 0.14392315 0.31955862 -1.2413101 -0.29640207 -0.47769818 -0.02504345 1.8281357 0.40759125 -1.7897216 -1.7817842 -0.5200881 -1.6438344 -0.13632138 1.2225693 0.8947837 -1.7344356 0.005266845 -0.20324793 -1.4912243 -0.040346377 -0.5278109 0.32233644 -0.36847115 -2.1147738 -2.537106 0.2701598 -0.85110646 0.5268173 -0.71635634 1.1373355 2.2439246 -0.45867014 -0.28337428 -0.9840234 0.5983161 0.66772056 0.20791718 -1.2266339 1.1339843 -0.68048143 0.031183716 1.9364669 0.4642467 -0.24436457 -0.46589133 -0.17079172 -0.078494504 -0.31663972 -2.332727 0.71634907 -0.4626214 0.4145703 0.34340036 0.7292837 1.9265504 -0.5014179 -1.6786902 0.025054604 0.9830928 1.7207301 0.25920287 -0.90664065 1.1133622 -0.42918876 -0.11251735 0.7061875 1.1151439 -1.1376507 0.6482157 1.1199338 0.92424417 -0.3937967 -0.018127546 0.80976385 -0.6727859 1.6115263 1.2872579 -0.19894859 0.23994678 1.9823895 -0.3848552 -1.1847355 0.60643256 -1.8230989 -0.7157671 -1.1684886 0.75064975 0.39343753 -0.82785964 -0.7556483 2.3047724 -0.93219477 0.24189392 -0.69597715 0.026444286 0.052187428 1.7673312 -0.84861326 -0.032430843 1.2501359 0.1345785 0.52104 0.20438933 0.31951475 0.7580644 0.66341794 0.66509855 -0.9224675 0.045243245 0.5241722 -1.7127312 -0.29516828 0.7680286 -1.9302793 0.28749582 -1.559978 -0.014855519 1.6201047 -0.03734487 0.6240611 0.8613977 1.4981356 1.6210053 0.35094744 0.6479137 -0.49822333 -0.76815957 0.044481978 0.42716148 -0.18224698 1.168436 0.47713873 -0.07494474 -0.01895127 0.89363813 -0.11869016 -1.9135069 -1.4591708 0.316443 -0.8870752 -1.3690078 0.8369538 0.22802646 -0.025711074 -0.99795073 -0.90095323 -1.8879158 0.32468024 -0.33780688 -1.2119073 -0.60203546 1.9752512 -0.7506589 -0.5101335 0.8088045 -0.42365575 1.2270081 -1.8332547 0.87186223 -0.88912857 -2.6961036 2.131165 -0.9625417 -0.3592711 1.1981947 -0.23511048 -0.05643699 1.3854954 -0.1562331 1.127254 -0.83840364 -1.1117284 -0.33192706 0.87572736 -0.5764255 -0.06387432 0.047287256 -0.37107632 2.0440135 -1.2589517 -1.1300831 0.87325937 -2.9438999 2.7119293 -0.52851903 -0.18979092 -0.7785623 1.8075966 0.30850878 0.38341478 0.8073509 0.88892144 -0.21433492 0.9692355 0.94813746 0.42857662 -0.35520163 2.5771925 -0.51808304 2.5416636 -1.6878233 0.00993849 1.0615299 -1.1746787 -0.92265475 1.6470156 -0.18643762 -0.064773396 -1.5670476 1.0725791 0.31966704 1.4451141 -0.0025347322 0.6895196 -0.37907848 -0.373383 0.39798754 -0.993422 -0.05608061 -0.22815983 0.46539712 -2.3934011 -0.5971514 2.6266856 0.8262675 -0.23021838 1.3877947 0.36076722 0.6988566 2.449582 -0.11959021 0.32684082 1.5818377 -0.007698685 1.1486933 -2.2487576 -0.7478654 0.5108102 0.7977342 0.6937729 -0.89318633 -2.3261206 -1.2019393 1.1527766 -0.59866357 0.67337847 0.21919183 0.6941207 0.6469901 -0.37810487 -0.07840595 -1.9523596 -1.1871715 -0.61279607 2.7628353 0.29932672 -1.3451486 -0.39585003 1.18986 1.8243866 -0.45963076 -1.0128689 -0.52935266 1.2370676 0.74451256 -0.38864517 0.13475811 1.5066006 0.91572464 -0.9305521 -1.476463 0.9398107 -1.9136384 -0.84652865 -1.5860368 1.5614343 0.4106311 -0.41910458 -1.7751098 -1.2564762 -0.38972047 -0.1715041 -0.32351685 0.7756802 -0.040220812 -1.0107627 -0.48514068 1.0732427 -0.24260229 0.5548913 2.931366 -0.3175891 -1.0374284 -0.3314261 0.5222977 -1.4124217 1.0692686 1.3756294 -0.1358662 -0.9366543 -0.1575458 0.08247041 0.19855976 0.56291723 0.6418022 0.7177746 -0.37114966 -0.21328323 1.5514914 0.1828784 -0.36615354 -0.6427074 0.79781926 -1.7830782 1.4505606 0.12231894 1.847452 0.19027251 0.74114275 -1.2756706 -0.6281414 -0.91754633 0.54205936 -2.5332937 -0.26265973 -0.24821025 -0.7569457 -1.9336131 -1.1454867 0.0828148
5e6ec218d9e747c9bd8c8f5fb9ab8670.jpg	0.26487777 0.7635348 -0.21270403 0.34232712 -0.20184924 1.3845527 -0.2276915 -0.32505584 0.6473644 0.44944492 0.35283497 1.1708063 -0.012500156 -0.10312453 1.0592556 -0.5727211 0.740922 -1.61903 -0.18154675 -0.19935802 1.9163876 1.7843611 1.7679067 0.4088384 -1.7041796 -0.21726403 -0.2369505 -0.5978583 0.91001266 -0.17022327 1.0991739 -0.79898244 -0.00042573735 0.2524578 0.92403585 -1.4532733 1.3705719 -2.2950644 -0.7693044 -1.1393518 1.2600552 -0.23917633 0.5074481 -0.40848273 -0.12505707 0.8037096 -0.97662437 -1.3092237 0.69400364 -0.90258706 -1.0780058 0.58798236 0.6359962 0.71496266 0.38109314 0.9164362 -0.7970749 -0.71425307 -0.54734063 0.86158955 -0.13132878 -0.014024824 -0.6015282 0.88241845 0.1610652 0.24961883 1.5301783 -0.06608039 0.4661632 0.5998101 -0.24615303 -0.42872563 1.1793095 1.3903697 -0.43943208 -0.34009013 -0.85020477 -0.9640129 -0.14748499 -0.75262475 -0.05819942 -0.8070121 1.11295 1.9737793 -0.53726876 0.37595513 -1.7390604 -1.3089308 -0.74626434 2.5009425 -0.13272013 0.48398325 -0.15401456 1.6661234 0.8311477 2.360976 -1.13047 0.07976885 0.21662691 1.4746863 -0.22411166 -1.233205 0.4255062 -0.31387317 -0.02971232 -1.0283257 0.52785283 0.9272049 0.8814296 0.27670223 0.8241353 0.64909226 0.47397155 -0.051544458 -1.5303603 -0.4482782 -0.65945745 0.21612392 0.39399078 -0.41051567 0.7329605 -1.7188088 0.97148955 0.09665971 -0.71284515 -0.4182018 0.13552216 0.34853643 -2.32227 0.52851605 -0.0067798384 -0.30597794 -1.9790173 0.20860144 -0.50499314 -0.13412121 -1.4276893 -0.58176845 1.0382092 -0.7297891 -0.38903862 0.18385735 -0.03350161 -0.52107555 -0.12839381 -0.293167 -0.06408742 0.020096824 0.47325197 1.7390782 -1.1338848 0.44427785 -0.01408872 -0.39402974 -0.3251257 -0.47518986 1.0146768 -1.3766812 -0.36728674 -0.758791 0.13804151 -0.2426198 -1.2935501 0.2152026 -0.58878726 -1.735922 -0.2441986 -0.46684214 -0.44253334 1.8684338 1.4456804 0.49480906 0.70334065 0.47598186 -0.026576474 0.18005219 1.5434304 -1.4639097 1.6271273 0.82802117 0.8757424 0.24058868 -0.047042042 1.1546675 -1.0289838 1.0509688 0.49262124 -0.05826913 1.2856922 0.017988466 1.9054995 0.2602397 1.4033135 -0.2816268 -0.66834116 1.2029583 -0.72403395 1.4289889 -1.2227962 0.4721709 0.986821 0.014319271 -0.79248023 -0.95741117 0.67322713 0.8516755 0.3700358 -0.085701704 1.0200173 0.37137592 -0.16186592 0.0907766 -1.323478 1.4553106 0.15876216 0.42719692 -1.1053308 -0.68569595 -0.6233842 -0.24783814 0.55825424 0.77338445 -0.0044992417 -0.0034534782 0.8201806 0.7327861 -0.041877866 -0.054978304 1.8871303 -0.38763183 0.23914853 -1.5318193 -1.4428669 -0.35314548 0.5936749 -0.4541181 0.8891233 1.2535157 0.050172113 0.4567952 0.9281087 -0.07033336 -0.8348309 -0.6397959 1.9224858 -1.1527764 1.3406191 1.060053 -0.73104656 0.0043151677 1.2313124 1.521184 -0.9089819 1.1102626 1.5756319 -1.2078787 -0.19476935 2.1102576 0.13642645 -0.9204556 -0.74892586 -0.20768732 -0.15355915 -0.37333316 -0.7221577 0.97403777 -0.65796036 1.3160715 -0.5359927 -0.5591497 -0.35810354 0.46390852 -1.9561248 -1.0522317 -0.5600501 0.8859828 -1.064067 0.7257818 0.7688801 -0.011426598 -1.3471055 -0.16362105 -0.4044938 -0.06836416 -0.6443719 -0.037754357 -0.9865555 0.7346798 -1.1747077 -0.3189236 -0.9446897 0.6460169 -1.7589259 -0.31832623 0.11204326 -0.45657527 0.14454736 0.845183 -0.03660597 -0.6234714 0.15408978 -1.196262 0.47323126 0.51111686 -0.70864666 0.22002009 0.91970706 0.5170771 0.38639045 -1.258067 -1.6155734 0.16405368 -0.43122646 -1.0846875 2.4241388 1.4166471 0.4565584 -0.24910814 0.7410269 -2.2860281 -0.42059508 0.5980002 0.10255462 1.2210801 0.88871056 1.0758567 0.2906299 0.94919723 1.1267489 1.3790269 0.12053346 1.1477889 -0.26491195 0.06715949 0.42427483 -1.9954455 -0.43756694 -1.3667071 -0.7066577 0.3926677 0.3434424 -1.3771962 2.0087936 -1.2134994 -0.11454934 -1.4059554 -0.47295997 0.49934664 -0.454819 -1.3752437 -0.4457966 -1.3409598 0.78276736 1.0782667 -0.46800414 -0.630975 -1.7875837 0.06851412 1.1988819 0.67278004 2.114912 -0.1775718 1.078455 -1.9425157 1.4837784 -0.75714195 -0.21628368 2.1828706 0.9068706 -0.98844683 -1.3110186 1.7079496 -2.4175434 -0.13373257 1.6481725 -0.31149146 -0.11497058 0.6350281 0.5309166 -0.4333973 0.51932806 -0.7254639 -0.5883919 0.6348045 0.5568776 0.19954106 -1.4648927 -0.37354425 0.48518836 -1.6053067 -1.1467081 -0.08372138 -0.0056068525 0.06031323 -0.789018 0.35679877 1.4476734 0.2960399 0.10005389 0.35547417 -0.8845284 1.3010409 0.08944583 -0.18110545 0.35718337 -0.778365 -1.2281251 -1.5175045 -0.47754917 0.7783871 0.47407472 0.15648764 0.82198685 -0.39778563 -1.4491047 -0.8657172 0.8529738 0.5644765 0.7548328 0.23632084 -0.43774718 1.0084827 0.41985518 -0.9494753 -2.8125112 -2.1157565 -2.55599 1.2088851 0.68100584 0.40207422 1.5240495 -0.29350895 0.10856877 2.053794 -1.1051453 -1.6786336 -1.0462767 -0.30757552 -0.1943487 0.9743848 0.14707395 -0.82572544 -0.9455266 -0.87619466 -2.201479 -0.36592036 -0.6117537 -0.8165444 -0.36301732 -0.097328745 -0.4176618 1.2797422 0.19915035 -0.0028142817 0.44670936 0.19298154 0.35860592 -1.3176495 -2.327849 -1.4919498 0.51621324 -0.30822968 -0.61710936 -1.0055752 1.5710951 -0.56777817 -0.58356744 0.84832907 -0.2500324 -2.1663215 -1.4900465 -0.3457834 0.8131031 -1.0089928 -0.4833402 0.72294164 -0.3435433 -0.0068026185 0.19496822 1.5723236 -0.8815782 -0.99586546 0.03838265 1.0414642 0.029367797 -1.0701785 0.2210334 0.7334834 0.3518062 0.6198288 -1.9746414 0.0457754 1.4834492 0.5003068 0.27208453 -1.1418364 -1.0087935 -0.033479705 -1.3899498 -1.5834856 -0.53680503 -1.051375 -0.07038801 1.7205597 -0.23172118 -0.47354972 0.19590484 -0.90883374 0.20244414 0.31238878 0.30010918 -1.447935
5e91665843bb461a94b3b6df1cc158c6.jpg	1.0117549 0.53258824 0.56895494 -0.10102038 -0.76143104 1.2444367 -0.7168987 0.63982624 -0.18023296 0.21154885 -0.31968853 0.37149873 -0.6097488 -1.1039053 1.7576756 -1.7637469 0.57138956 1.201113 0.38741094 0.5917719 0.8468516 -1.1150234 -1.2521112 -0.053275257 -0.074343845 0.13100123 1.2341981 0.010609515 -1.7009721 -0.2533741 -1.3433803 0.152982 -0.285868 -0.2283745 -1.1458455 1.6913675 -0.3447823 0.92090136 0.94698095 0.23892254 -0.7380321 1.2276725 -0.38776585 1.2356063 -0.36687392 -0.11323455 0.399882 -0.7069648 0.22033715 1.4826329 -0.34598917 0.036744617 -0.50244075 -0.7534668 -0.7278601 -0.11746554 1.1011987 -1.6238427 1.7335532 -0.066573106 -0.49106514 1.0535303 0.9833378 -0.44482332 0.5477563 -2.0014007 -2.0261297 -0.6515796 1.1009327 0.1947952 -0.62655514 -1.1689937 -0.13564606 -0.3194201 1.332514 1.0491843 0.5361054 1.1355511 -0.48597974 1.7361512 -0.83492416 -0.8105745 1.7230023 -0.17336887 0.9170972 1.7804389 -1.0841718 1.4868258 -0.00074802525 -1.6798716 1.0211288 0.96529746 -1.0134834 1.3114206 0.16158137 -1.095919 0.294498 -1.0831214 -1.1036187 -0.71164536 -0.26384377 0.9410012 0.554991 0.81476367 0.41806424 -0.9348458 0.07104634 2.168223 -0.3014036 -0.7428551 0.62947667 -0.03867748 -0.06632099 0.026083305 -0.42611694 0.6658382 -0.9796299 0.4775712 -0.46458054 1.9149108 -0.9873283 1.4661188 1.1782322 -2.071984 -0.91399395 -0.6715051 -0.9588119 1.1118438 1.4419916 0.95032835 1.8290914 -0.083354235 0.7499279 -0.17849874 0.5958329 -0.38111418 -0.40154383 0.4284484 -0.9158614 0.7629306 -0.5239821 -0.31303817 -0.08338955 -1.0942242 1.4829103 -0.41658187 0.5979789 -0.49935684 -0.61236864 1.5918404 -1.0586277 -2.917037 -2.3122041 1.560307 -0.18960999 -0.82935995 -2.3495984 0.16124743 -0.6446854 1.3379498 -0.51393354 0.31490773 1.0465933 0.5575884 -0.7131448 0.037170034 0.63273174 -0.85153115 -0.49072814 -2.8702703 2.6666129 0.9098779 1.3177388 -0.55659264 0.8354628 2.1484423 0.03551194 1.097156 -0.7208103 0.29484278 -1.4634221 1.666167 -0.11881885 -1.0482941 -1.6846576 -1.2935991 0.28661343 0.77252555 0.60801244 -0.17136337 0.20520009 0.090687655 -0.9714805 0.5803827 1.3094145 -0.31647068 0.67615056 -2.6897192 -2.6592138 -0.4286525 -0.48138767 -1.0088341 -0.28718677 0.5279616 0.22676104 1.0062141 -1.5926915 -0.4466764 0.8788803 1.7627332 0.32368368 -0.52281845 -0.30563596 -0.91080886 -0.5154639 -0.65525 -0.03670217 -0.18254834 -0.040984847 0.24781074 -0.8282791 0.9894357 0.24145177 -1.1258354 -1.5509434 0.27430165 0.9822799 1.9632318 -0.6514528 0.59249276 1.0005131 -0.7907497 -1.9787078 0.5689267 1.0400885 -1.3007361 1.0364279 -1.5844139 -0.7817803 -0.24662833 0.5656815 -0.8125358 0.14582127 -0.5573674 -1.0104024 -0.3775232 -0.012546685 -0.95810676 0.5256387 -1.1873426 -0.61673206 -0.94287205 0.62457675 0.6316638 -0.7312075 1.0567188 -0.22018936 1.4913188 0.059425443 -0.43774396 1.0939096 0.5489962 -0.5915734 1.0542951 -0.07167417 1.4360147 -0.019409537 -2.222949 0.5944078 -1.9984512 -0.93530726 -1.1709678 -0.38099498 0.5042361 -0.071178 -0.92274374 -0.9873758 -0.09534271 0.57670826 -1.1586652 -1.285677 -0.34151164 1.1756582 1.0893662 -0.4095267 -1.4355309 -0.8916972 0.41283205 -0.72854817 0.59584534 1.106979 0.16630009 0.60747546 -1.0219084 -0.34898245 0.41294876 1.5324093 -2.1016915 0.21051681 0.50760657 -0.8175147 -0.6878433 -0.33813566 -0.81581247 0.056499504 0.20760995 0.3856898 -0.85813195 0.75708085 -1.242243 0.34119913 1.1210597 0.8579527 1.0405927 0.21202219 -0.17129517 1.6236534 -0.3813527 1.1819565 0.7993881 0.9269742 -0.51705134 0.872471 -1.1722424 0.28776342 0.57979757 0.6676262 -1.4964638 -0.33208376 0.2900394 0.82724905 0.9220112 0.055970654 -0.7404799 -0.19595262 1.2467334 0.7932856 -1.0192069 -0.015156355 0.6623125 0.94429344 -0.648692 -1.6640215 -0.78770787 0.3552464 1.9694102 -0.49682918 -0.8561989 -0.22416416 -0.1401735 -0.8516799 1.0597206 0.63850784 0.8558668 1.4085165 2.5156436 0.7638555 -0.9497587 1.4480282 -1.1048332 -1.2886345 -0.15082769 -1.3557203 0.5416311 2.0131757 -2.2253902 -2.4702613 0.91090983 -0.29568052 -0.80873317 -1.1645156 -1.5617381 0.7492757 0.4769472 0.4805387 -0.6353981 0.18708831 1.5581366 -2.0389528 0.46756417 -0.7144999 -0.43679214 0.3130793 -0.7822262 -0.13442425 0.32489428 -0.026230775 -0.52977645 -0.73745674 0.86173487 -0.5814066 1.6651515 -1.5344136 1.7580669 -0.6374142 2.4312325 1.0893409 -1.2429426 0.5156966 -1.4120774 0.7646266 0.74918306 -0.36144304 -0.21652511 0.37177104 -0.9507608 -0.6179262 0.21497127 0.31597555 0.23658937 -2.0254908 -0.83278894 2.0968704 -0.061130315 0.7152009 0.20659328 2.0519404 0.24763459 -0.23609382 1.2295525 -0.66508085 -1.0759788 -0.496318 -0.01760162 1.0946144 0.551818 -1.0254917 -0.4864266 -0.20713678 -0.7590717 -0.23946682 -0.05325833 1.2531366 -1.4106177 0.69261634 -0.21369237 0.13989437 -0.9744785 0.9401176 0.06507167 1.6743461 0.47253263 -0.112763144 -0.5286413 -0.09507818 0.96805036 -0.05932392 -1.499077 0.6217388 0.85475504 0.05262182 -1.5114965 -1.548929 1.9056627 0.28843603 2.6313436 -0.260368 0.38687584 -0.281232 -0.67032886 -0.3369064 0.6753657 -0.7756273 0.9642116 0.26822823 -1.6200668 -0.35259518 -1.7269809 1.3340591 -1.206048 -0.4608676 -1.5865307 -1.6002134 -0.40023208 1.6145682 0.18434782 -0.3005376 -0.5409893 -1.4651492 -1.3741257 -0.23239914 1.3398567 0.7298708 -0.16270068 -1.4222645 1.4251689 1.2070954 0.06991818 2.222131 0.63006276 -0.58960974 0.3443436 2.139748 -1.1290294 1.5374439 -0.28612158 1.9193962 0.05048401 0.45163417 -0.6370047 0.49479932 1.642368 -1.6467879 -0.7416869 -0.4424098 0.33459762 -0.8193548 -0.024082497 -2.2234752 -0.43478054 1.606807 -1.2407501
5f1aa74c31bb4372a2e698509e430123.jpg	0.0066529214 1.2894031 0.41396374 -0.51049036 0.21653882 0.25807637 -0.08389069 -0.18434227 -0.9012694 0.29075187 -0.5569964 -1.0905129 0.48222783 -0.75411874 0.07731098 0.89404416 0.10338577 -0.9245609 1.5798408 -0.87871605 -1.8585248 -1.9350809 -1.0178461 -0.9169971 0.44354105 0.49565956 0.88260454 -0.34645808 1.6126302 1.0271968 -0.1080094 -0.23990627 0.9601859 0.03928262 1.5037613 -1.3442589 0.9409967 2.1672657 0.16592497 1.6606774 -1.3272763 -2.0362937 0.9687904 0.25269535 -0.5267823 0.9012415 1.3928866 -1.0797733 -1.1923147 0.8299799 1.2633288 0.5575514 0.4770787 -1.5319778 0.5279963 -0.5773639 0.22225934 0.27358347 -1.718038 1.0431387 -0.075340934 1.5120106 -1.2745664 1.3868728 -0.5040827 -0.010792473 -0.8893567 0.39810833 0.7948189 -0.583556 1.4907435 -0.18429363 0.3010066 -0.22952527 -0.8497743 -0.83420473 -0.35540372 0.6172697 -0.06620978 -0.05498004 -0.4334244 1.106625 1.5761467 2.630249 -0.42443922 0.719861 -0.450057 0.34774995 -0.2107879 1.5801533 -0.5701762 -1.0265365 -0.57624114 -0.52496374 0.49594027 -0.033104625 0.35023406 0.6808114 1.5479041 -0.615044 -0.658346 0.5449132 -0.14637905 1.5260686 0.014171746 0.72238606 -1.3873408 -1.9153571 -1.5988387 1.5748615 -0.30763808 -0.92515457 -1.4264926 1.4518468 0.042925984 -0.47706538 1.3400367 -0.39553642 -0.10427633 -1.7287658 -3.8347375 -1.2855322 1.3657079 0.6409421 -1.2335551 0.3991254 -0.52036154 1.0013939 0.898204 -1.0811087 2.1427798 -0.0199693 -1.8830492 -1.9382057 -0.20829108 -1.0447227 1.052925 0.59962964 0.8298744 -2.049004 1.5544894 -1.4444635 -0.04544142 -0.543234 -1.128141 0.4421767 -0.31996197 0.24949819 0.12314086 0.20625106 -0.06786675 -0.1311216 -0.048955545 -0.26468983 -0.30770302 1.151632 0.7407874 -2.450252 -1.0773478 -0.5326456 0.22954421 1.1635656 0.5510572 -1.5020874 -2.1720002 0.15055719 0.6373173 0.8523356 -1.9033237 0.07822922 -0.7082976 -0.8308445 2.6638207 0.38134968 -0.5690961 2.135862 -0.47629696 0.098087214 -1.1497918 -1.3720994 0.03280384 0.50425404 0.38537213 0.26348215 -1.5312676 -0.9114667 -0.3726471 0.124824725 1.1053402 -0.03609324 -1.5240453 -1.7525989 -0.14523552 -1.1745446 0.2183172 1.2123553 0.6503629 -1.556312 -0.14813465 -0.53671265 -0.9723541 0.041885495 -0.99490255 0.49133468 -0.056611557 -1.4123417 -2.0438244 0.18451697 -0.7049833 0.63392276 -0.61711675 1.7975473 1.7139568 -0.33748892 -0.8533523 -0.4087981 1.3646374 0.9194274 0.05267711 -1.2889603 0.48844174 -0.3894967 -0.019198406 0.80461866 0.0851488 -0.75300187 -0.38384607 0.32110178 -0.45755225 -0.48028195 -1.750992 1.1144682 -0.99420065 0.08074775 0.42086932 0.8872289 1.5179168 -0.3162245 -1.2310725 0.5982244 1.212741 1.7542541 0.072127715 -0.83528763 1.185775 -0.5643145 0.01854901 1.2365062 0.95844054 -1.0816793 -0.001007773 0.6998075 0.11222303 -0.46933258 0.5138912 0.49442315 -0.60728264 1.165229 1.0643246 -0.45541495 0.5973862 1.2668246 -0.48105583 -1.4693222 1.0169344 -0.9580034 -1.4083251 -0.66326463 0.64461756 0.59620416 -0.48094192 -0.8067338 2.1171498 -0.33333322 0.2668659 -0.38121563 -0.020182654 0.068838015 1.9266224 -0.62027985 0.06499169 0.92527163 0.0023330897 0.041186932 0.35960364 -0.50450915 0.6777118 0.9112172 1.4733548 -1.1619986 -0.47866076 0.4398913 -0.8020525 -0.6228957 1.0989673 -2.0692928 0.6609982 -1.2068223 -0.2661274 1.6146858 -0.27147242 1.2406602 0.29820484 0.82851315 1.2216964 0.6346564 0.4527341 -0.77764994 -0.8960436 -0.33287528 0.085859925 -0.05419587 0.8305849 0.32273734 -0.21953715 -0.19058906 1.3626283 -0.29617965 -1.2901914 -0.8840184 0.04647991 -1.3231176 -0.9261502 0.6848737 -0.16851999 0.03743717 -0.6299053 0.42379403 -1.7271004 0.7700232 -0.85858464 -0.8263518 -0.34767407 1.8870804 -0.75579375 -0.46343812 1.3364773 -0.61373013 0.84913313 -1.6245269 -0.24900876 -1.0238001 -2.2396996 2.0521736 -0.9607975 -0.45083672 0.92164844 -0.3507796 -0.28013244 0.5272484 -0.32186702 0.6117527 -0.8004853 -0.9799295 -0.7978802 0.87163085 -0.8936527 0.60322046 -0.73166823 -1.287181 1.8921034 -1.1080793 -0.3649019 0.63784075 -2.5821614 1.9326644 -1.0645287 -0.13163969 -1.2429485 1.5289533 0.22265849 0.3132909 1.2600678 0.9455574 -0.22907047 0.3664641 0.7632415 0.1004033 -0.76912344 2.305209 -1.1240246 1.9754237 -1.4172163 0.47653684 0.73168856 -1.0693026 -0.6792837 1.317638 -0.1624565 0.009466032 -1.9534043 1.0360543 0.55278236 0.9208883 0.01146958 0.7134815 -0.3690446 -0.05021448 0.87733644 -0.89634746 0.17981116 -0.10932285 -0.07034978 -2.377846 -0.79120004 2.4163904 1.0145754 -0.3010584 1.0089167 0.021776956 0.44586068 2.445205 0.003189519 -0.09084824 1.8206692 -0.60347486 1.3123418 -1.7499518 -1.0871273 1.1029338 0.14787629 0.45847943 -0.068519264 -1.7121208 -0.97062564 1.0089498 -0.4116951 1.3232162 0.32239908 1.236181 0.83771116 -0.29685155 0.04653658 -1.3951715 -0.54333 -0.5287076 2.4667983 0.36726752 -1.5246823 -0.14077362 1.0905797 1.7014577 -0.045744836 -1.2258493 0.11439285 1.0208771 1.0295336 -0.75468874 0.019136075 1.4477562 0.7703005 -0.8502028 -1.2096691 0.84303176 -2.284512 -0.37026665 -1.639005 1.9647311 1.0301979 -0.55271494 -1.9252757 -1.2625091 0.2540189 -0.40016004 0.28708813 0.76415133 0.1499379 -0.9571464 -0.08116994 1.1497437 -0.37894914 0.10616107 2.0573585 0.25287238 0.0625996 -0.35372972 1.1301631 -1.0421284 0.6496725 1.007085 -0.15574794 -0.5614346 -0.41501385 0.2003398 0.28422815 0.6204202 0.70806605 0.39480615 -0.19899906 -0.3681439 1.1991265 0.032376185 -0.3796809 -1.1648438 0.7068803 -1.4593474 1.336601 -0.24419291 1.8817508 0.6607533 0.518052 -0.798167 -0.18560854 -0.08813839 0.45280504 -2.2693737 -0.16523992 -0.29123744 -0.6981292 -1.2811291 -1.4781035 0.31722116
60851eb4c49a423b827a08cc981345fe.jpg	-0.07913319 -1.423876 -1.6703639 0.86825347 1.2374465 1.2626387 0.3396901 -0.5734249 -2.178702 0.6972852 0.8862817 -0.8658734 -0.60767764 -0.8476118 -3.2726254 0.034472555 -0.12833206 0.616459 -0.26451632 0.6534457 0.16400944 0.7993757 -1.5523337 1.1450914 -0.17353068 -1.1606331 -1.2550565 0.8227656 -0.6775736 -1.0791812 0.77043426 1.635524 1.7273854 -0.96296746 -0.20103694 -0.89858174 0.21094233 -0.23999913 0.1467723 0.3709509 0.088003114 0.89086837 0.3117539 0.8640089 -1.3571186 -1.0270088 -0.3469504 0.15032111 0.43579596 0.8430263 -0.32583225 2.4283438 0.3126059 0.68276167 1.4861166 0.19508049 1.4527811 -0.9446718 -0.5046606 -0.8602664 -0.3905988 0.8304274 0.80177456 0.007816337 0.2105364 -0.6035133 0.56846315 -0.8373152 -0.49675104 0.015436456 0.95231736 -1.1096399 1.302155 0.31278628 0.10369726 -0.09354867 -0.24995306 -1.7418971 0.7410944 0.9089093 -0.4171195 1.3692776 0.9527933 0.9312316 0.89036024 0.07898023 -0.5535928 0.61064166 2.229841 1.1883731 0.5460053 1.5100582 -0.38671035 1.403098 -1.002887 -0.9582526 -2.7250743 0.5185932 1.8886261 1.5726755 -0.060759984 0.55581534 1.0142105 -1.8045701 -2.1430292 0.5147118 0.566434 -0.7482535 0.09293452 2.0555022 -0.13111416 -0.782829 1.9979414 -0.6011781 0.09364791 -0.6792786 -1.3723494 1.6857251 -0.47353715 0.47086507 -0.19855681 0.2013301 -1.3781762 -0.3335788 -1.6972818 1.4362235 -1.3961163 0.20575139 0.80049163 -0.78002447 -1.2240462 -0.006963551 0.028179765 0.2636342 -1.3645442 -1.0639783 -0.18051264 2.1899323 -2.0042233 -1.0774809 -1.4557686 -0.3873337 -0.65087795 -0.082010835 -0.34048566 0.082451895 0.5066644 0.5751302 1.8512331 1.4913735 1.5240124 0.025071826 -0.67312235 -1.1725587 0.0032559931 0.8786605 0.99003756 -0.69932395 0.6222315 -0.9748015 0.07303022 0.0801364 0.14562656 0.19111532 1.3500992 1.390828 -1.7079923 -0.22872797 -1.1066196 0.50956684 0.0601227 -0.340761 1.0734406 0.8704102 0.77809644 0.00024400651 -0.23025379 -0.66841394 -2.1905468 -0.7238885 -0.9737435 -0.68826187 2.0777552 0.46812063 1.0022881 2.0931675 1.9592375 0.18975511 0.43597057 -0.7701408 0.12505405 -0.707925 0.43643898 0.122712955 0.078777015 1.7589523 1.1130552 0.37562996 -1.8727844 -1.4494029 -0.8311314 -0.24401063 -0.066568814 1.1396824 -0.22351499 0.32984158 -1.1689793 0.5411835 1.8497729 1.2476572 0.67775786 1.9344604 0.69073087 0.31911415 2.2612681 0.6294502 -0.049955636 0.6501095 -0.01695393 -0.98625505 -1.079381 -1.8109034 0.1372496 0.9556006 0.9086222 -1.0438054 -0.53887 0.4698577 0.29632717 -0.28386024 -0.028670372 0.5429843 0.021118358 -0.011601359 1.6777252 -2.5095701 -0.057714954 0.1724496 1.1893473 -0.08904259 -0.8405274 1.8514476 -2.0102298 -0.7340638 1.0790622 0.46861675 -0.16426706 -0.5804117 -1.1314936 -1.7402835 0.30724084 -0.14938416 0.16541654 -0.792652 0.064054385 0.78007877 -1.2193961 1.1686898 -1.7847404 -0.93454313 -1.77346 0.5214312 0.36218 -0.27029705 -1.2241266 0.24922466 1.0729645 0.44226745 -0.031089455 0.043788165 0.36632237 -0.69015265 0.07740334 -0.8127467 0.6450428 -1.5475882 0.20648716 -0.10611826 -2.517528 -0.20020723 0.3268999 0.6089723 1.0844903 -0.14560138 -1.5218035 1.9850761 -0.29071787 0.19195884 0.06752269 -0.27342403 -0.47679722 -0.22224835 0.80177337 0.39812115 1.3163006 1.7051076 1.3557386 0.28834638 -0.11880317 1.3992985 -1.0844241 -0.23490316 -0.3690037 -0.9397653 -0.92666644 -0.8043008 -0.42285118 1.4080713 0.87231135 0.9093561 -2.0572653 -0.15917586 0.22948316 0.97755283 -0.5500714 0.3340981 1.4247575 -1.5695854 -2.5077393 0.71800864 -0.0111414995 0.784371 0.4765608 -0.5201906 -0.8696357 1.640945 0.24378155 2.0302773 -0.20091519 1.9625837 0.75764346 -0.27695313 1.4674029 -0.5524929 -1.5651296 -0.3861388 2.361166 0.785882 0.38242173 -0.22320136 -0.6168022 -2.0939908 -0.79800826 1.3534006 -0.87006956 0.2772872 -0.9786495 -0.4040441 -0.8825136 0.60046506 0.28972363 -1.0488657 1.1921996 -1.3055441 -0.894928 -0.8631519 0.874849 0.28793204 1.4247506 -1.6060655 0.18095666 2.279007 1.3049681 -0.08966472 -0.020215057 0.9607044 -0.71658206 -0.020036258 -1.093982 -0.7791638 -0.40568772 -1.140391 0.7299214 1.2461162 -0.6019211 0.066907495 -2.8065703 -0.80822086 -0.33930993 1.5680417 1.0524435 1.2666023 1.3654593 -1.287576 0.73117054 -0.54819524 0.3024248 0.11656983 -2.9063926 -0.2490073 -0.8736079 -0.6728098 1.3171405 -1.410641 0.7157888 0.09710036 -1.106048 -0.29240808 0.32404292 -0.20703885 1.5769756 0.0975848 -0.5647852 -0.57565945 0.10166223 3.0270498 -0.11188184 0.8288895 -0.6633016 2.6938047 -0.4971806 -0.71394885 -2.5064745 -0.55642223 0.80912876 1.0095544 0.7278098 -1.6982216 -0.2597552 -1.042613 -0.529574 -0.33412653 -0.33412445 -1.4284362 1.3260002 0.31812155 -1.1784807 1.4799511 0.3675873 0.13859905 -1.1613381 0.08058259 0.3502877 -1.4940953 1.1274719 0.3028297 0.9359086 0.73406637 -0.18610647 0.22369874 0.9596127 0.7579567 1.4638801 0.7028879 0.11463699 0.42747194 -0.17726803 -1.256567 0.85383946 0.36575934 0.6099596 0.19004965 -1.019065 -0.5279464 -0.78874457 0.7709161 -0.4299421 0.092516124 0.022067707 0.30958834 -0.69784415 -0.9751318 0.34430262 -0.40966186 -0.36492527 -2.9791589 -2.5302768 2.149353 0.09910228 -0.5302024 0.27311733 -0.32018888 0.19754554 0.3856861 0.48901248 -0.2022455 -0.9348099 1.5352005 0.98520064 -1.7785102 0.34195068 -0.08140893 -0.2067494 0.97454846 0.88570017 1.4680029 0.0927183 -1.1065433 0.9611082 0.57328284 2.1129398 -2.1006496 -0.029033024 -0.14995004 0.37097427 0.734838 -0.17747065 -0.70686877 -1.4074962 0.69521374 1.5968764 -1.4077489 -0.1601325 1.1800382 -0.32397252 -0.4079177 -0.58675015 -0.6657285 -0.4834125 1.019465 0.7158914 0.95413154
6156acd421e541aaa9f7f1dce12a0fc9.jpg	-0.64896953 -1.0691351 0.5996814 -1.7068311 -0.6083396 0.7951515 -1.9965729 -1.1801698 -1.7120883 -0.23104654 -0.49743083 1.870754 -0.46614116 0.97716606 -1.0062499 0.5460788 0.96094793 0.26288772 0.6139905 2.4997878 -0.19356926 0.1150599 -1.2733153 -1.9063957 -0.40014488 1.4102347 1.1480489 0.10370881 -1.0587187 -0.6378925 0.33246058 -1.4752859 0.82013625 -0.49667352 1.3137319 0.78712595 0.0757011 1.9041178 0.43779787 1.079346 0.0007414669 -0.55923265 0.597651 0.7420268 0.7830397 0.38122624 -0.23359776 -0.78425497 0.42399353 -0.17559135 1.3191388 -1.5975199 -0.021772653 -0.44829354 -1.6436704 -0.58806145 -0.37265807 -0.99532646 0.74011576 -1.9074769 1.1500186 0.07258624 -0.87593895 0.2569467 0.19769484 0.6150297 -0.800341 -0.7347591 -0.023565426 -1.9219927 0.19671349 -1.8886244 -0.030168846 0.07980425 0.6551853 -0.17217508 -1.005902 0.8459438 1.145189 0.5265203 1.1893623 -0.8939879 -1.2068998 0.73346895 0.09241151 -0.38204166 -1.9316401 1.349932 -1.285193 -0.8080292 0.004642293 0.12599853 -2.667278 -0.74149114 0.75069547 -0.3506989 -0.56045604 -0.23892015 1.3411952 1.8271899 1.3862615 1.2890149 -0.24415767 -0.5422961 1.7881645 -1.9406619 -0.29261202 -0.1637313 1.4596233 -0.30017534 -0.5577795 0.60165095 -0.5964629 1.0616462 2.101723 -2.1954417 1.2586782 -0.45923162 -0.023581203 0.4531781 -0.097614296 1.0086491 1.4590468 1.2610328 -0.09389227 -0.06686345 -2.0995293 0.40312767 1.4389439 -2.5221179 -0.45312256 0.935205 0.24044417 0.917994 -0.14184795 0.21830359 0.98492545 -0.20184323 0.5423719 1.0882027 -0.6551725 -1.6656855 0.37836093 2.2044718 -0.8152342 2.993549 0.4582168 0.9222449 -0.47640008 0.43393496 1.9181886 -0.842938 0.6324554 2.2844887 0.202874 0.46786988 -0.63481563 0.71177286 0.58800197 -0.70608383 -0.8535636 -0.45462543 -3.386327 -0.16130316 -1.0353955 1.2571577 0.10515459 -0.60007787 -1.1252868 0.75208884 -0.60734797 -0.77121913 0.23815846 1.1188102 1.7895801 0.37868986 -0.46716416 0.8639739 -0.7324282 1.1771541 2.0552547 0.13697232 -0.3793107 0.23340525 -1.6906214 -0.83626515 0.36945993 -0.09831955 1.2635714 1.2445201 -0.62575704 0.04817919 0.34213495 0.8910445 -0.619061 -0.29929703 0.719682 2.0498352 -1.2921026 -0.67966956 -1.5102874 -0.6727769 -1.2168744 1.1660017 -1.2097614 -1.0015607 -0.8051367 -0.3940642 -0.23168404 -0.31096643 -0.34872663 0.468039 0.013572708 0.7251929 -1.0905571 -0.01264258 -1.847841 0.4083801 -0.213918 0.9450482 1.2724586 -0.78523535 -0.31693232 0.61245173 -0.03768192 -1.6906812 -1.0934191 -0.6388701 1.2900002 -0.8620371 0.6505474 -0.6781977 0.82424045 -0.6218014 -1.3060355 -1.6183221 -0.8416598 -0.3183361 0.30789715 -0.031255707 -1.0371094 -0.55175316 -0.34282178 0.42578223 1.7110711 0.78540885 1.1936392 1.0375993 0.072400376 -0.86696345 0.7924938 1.6683009 1.4429636 0.028850354 0.085925445 1.1689352 -1.4678693 -1.6921165 -0.39316365 -0.9751841 0.29102707 0.24779272 0.28077084 0.9963829 0.028283846 0.11782152 -0.95633554 0.1947885 -0.9915863 0.6816952 -0.39234957 1.2550821 -1.1648521 -2.1581192 0.67015225 -0.14283091 -1.0584928 0.40813428 -0.57277256 -0.2357193 -0.8257849 0.3858779 0.7320571 1.1116829 0.83425295 0.7852157 -1.0148454 -0.2663417 0.44352102 -0.82402223 0.19387166 -0.4753947 -0.5019592 -0.56977504 0.20918056 0.57071066 -0.5954721 0.21146698 1.9242045 1.7718482 -1.27585 0.5477172 -0.49895912 1.6473734 -0.60357225 0.50786656 -1.503283 0.30880967 -0.32332212 -1.1991228 1.3354661 -0.5324711 0.84564114 -1.8767338 0.124648765 -1.1746616 2.4997494 0.13013254 -0.7862063 -0.5872667 3.1159291 0.66372865 -1.0210519 0.1851186 0.15086345 -1.1244305 0.09710908 0.26718402 -0.57621014 -0.61222106 -0.04086654 0.75454926 -1.6827148 0.8869866 0.002873458 -2.2876863 -2.2168298 -0.65184045 -1.9510778 0.7901954 -0.13445947 0.05485957 0.31012517 -0.89784205 -1.3025802 1.1658422 0.09436765 1.859212 -1.0645057 -0.5833732 0.2970525 -1.1845394 -1.330935 0.24977513 -0.68677145 0.37949657 -1.2697617 0.0721768 -1.1533625 -1.4561607 -0.7042303 0.8139499 -0.027371777 -0.27755475 -0.7990102 0.35971248 -1.5248735 1.7198865 -0.6163604 -0.13018622 0.061152562 -0.4256827 0.264091 1.2239699 0.6767242 1.4666044 -0.6053328 -1.2965461 0.060741603 -0.38947737 -1.0240188 -0.9781087 -2.6110888 -0.7040479 0.7993204 -0.5675981 2.4253008 -1.0559882 0.49056506 0.7433011 -2.2527049 -0.19997515 -0.073369704 1.5923733 0.8451165 0.05668921 0.6439154 0.5505189 0.1251313 -1.0497367 -0.4931714 -1.5893778 0.6489727 0.5703582 -0.29410893 0.5563753 -1.475111 0.043872558 -0.13216564 -0.049125288 -0.17375904 0.35715586 0.72459114 0.40790564 1.5684435 -0.34924188 0.13289417 1.2029691 -0.034216385 1.5126061 0.77998394 1.956351 -0.20829344 0.083846994 0.7368069 -0.34916788 0.9289683 0.6277608 -1.1123329 -1.4035004 0.4868518 -1.613739 0.9964183 -0.8809129 1.2677016 1.5379298 -0.3352239 2.3918662 0.14105561 1.7194897 -0.9629108 -1.3066698 -0.08274136 3.6095 1.1372768 -1.1247274 -1.2851316 0.11974256 1.4855852 -1.5816413 0.1398376 -0.66169333 -1.3793029 1.3045021 1.5264248 0.68779755 -0.3428291 0.88645744 0.9210358 1.0007054 -0.097201705 1.2183269 -0.07098137 -1.3515118 2.1538744 0.078984976 -1.128318 0.55339754 0.6360345 -0.6205691 1.4020433 0.8529867 0.8596078 1.1975317 1.164161 0.42888978 0.09731513 -0.071727015 -1.4999272 -1.4979573 1.3373647 0.15910466 1.1981196 -0.64330536 0.92350215 -0.95497847 0.34186456 0.1524229 1.200428 -0.053998362 1.393548 1.5326408 0.7830718 -0.08101393 0.9132468 1.1900774 0.5256575 -0.9448893 0.29884645 2.723157 1.4944074 1.9917837 1.1675467 0.49352837 -0.060720086 -0.0045467755 1.4934083 -0.3724005 1.9125742 -0.06385332 -1.1662414 -0.73864436
619a186e9abe4d1fb0d27a58abc7b3a0.jpg	0.86031175 0.8659296 -1.2070439 0.2395604 1.0054009 -0.585214 -0.7643145 0.092178255 -0.99367523 -1.3837004 0.97154915 0.20728743 0.7255245 0.12989536 0.9783189 1.2329726 -1.2114571 -1.1729807 -0.24556042 -1.8382806 -0.0606671 -0.50340426 -1.9062026 2.1167023 0.096321836 1.8364599 0.8747651 0.09366872 -0.11311552 1.4321707 0.86833245 -0.3888226 -1.4250901 -0.4055995 -0.28709453 -0.11451681 -1.4681172 0.71514577 -0.062250435 -0.2619829 -1.4515357 -1.394409 -3.0845792 1.1436933 -0.49848697 -0.9890196 -0.5839256 1.1033529 -0.049245268 0.8972973 0.43288168 0.5179104 -0.9387733 -0.54950446 1.4184184 1.3011873 -1.610866 0.764939 -0.6024234 0.2790872 -2.232624 2.06127 -1.4492692 -1.092535 -0.78866696 -0.50853515 -0.26435035 1.105281 1.3082905 0.862036 0.44519466 -1.219986 0.38102084 -0.88106835 1.1201411 0.3878113 1.3816183 -0.29832017 -1.0084758 -0.835376 1.4401962 1.6170961 0.9464488 -1.0509919 -0.13566753 -0.5970757 -0.623932 -0.090516195 -0.647082 -0.35815838 -0.02765134 0.24929443 -0.9912977 0.42809564 0.37372553 -0.038321927 -0.060318775 -2.336748 1.2138014 -2.2883184 1.4360564 0.3609676 1.4193188 0.19247238 1.4294982 1.2502009 0.16150852 -0.85570896 2.2321951 0.34601787 -1.5172687 -0.12562671 -0.4602488 0.40301585 -0.8769393 1.2193946 -0.30788407 0.48453748 1.1308278 -0.49483287 -1.9517065 -1.3950906 2.2556577 -0.40894178 1.0392958 -1.3136637 1.3114918 0.09093675 -1.1815943 0.73400474 -0.6531747 -0.39688048 -0.48055565 -1.011422 0.38040164 -0.75082606 0.81889814 -0.2017898 1.0595001 -0.15868685 2.1485777 0.7546073 1.618358 0.48555493 -0.029263139 1.4726977 1.0159898 1.1516173 0.7149452 1.7665055 -0.49351287 -0.38222206 -0.04631707 1.761152 -1.5811868 0.800819 0.18230726 -1.2030287 0.28861985 1.1884503 -0.08158546 -1.3657967 0.9568446 -1.0177598 0.40551755 -0.018720321 0.9353852 -0.22774354 1.3617541 1.8548685 -1.5824139 -0.36785728 -0.34364873 -1.5639918 -0.6038353 -2.1070297 1.2655972 1.9228079 1.4895694 1.2331052 -0.43923956 -0.8171879 -0.28353572 1.9970913 -0.2859056 -0.3352159 0.37477732 1.1562002 0.24954441 0.22768317 -0.3585496 -1.1252412 0.063298814 -0.110672854 0.3715182 1.3707783 0.5266844 -1.1565577 -0.12266162 -0.030635955 1.0996399 1.4793549 -1.2571924 -1.6294314 -0.40121326 0.439766 -0.37599698 -0.9896875 -1.2651784 -0.25617296 -0.66923445 -1.1914184 1.5334392 -1.5955534 -0.33868802 -0.46500176 0.15451868 -0.254372 0.27772713 -1.1980073 2.465464 -0.9811825 0.8452286 0.4505611 -2.2396038 0.976204 1.2591178 2.6383898 -1.6735198 -0.20362571 1.0573025 -1.3389928 -1.4532276 -0.08047992 0.089689635 0.52142 1.4449129 0.3983542 -0.01660478 0.49576968 1.486956 1.5113845 -1.4166931 0.022561027 1.2043104 -0.9251546 -0.82835615 2.7725441 0.426508 -1.6645873 0.6491584 -0.97219694 0.5399851 0.07836312 0.37371725 0.120176405 -0.70079094 -1.0316362 1.8668581 0.16487345 1.1864616 0.70686585 1.4152161 -0.26726115 1.5420663 0.07990368 -1.3938307 -0.839465 0.2726797 -2.7319908 -0.74273914 0.52774936 2.0875978 -2.6897225 2.7877772 -0.4185148 1.2457117 1.6389582 0.89960456 -1.6609728 -1.9327959 2.5249188 -0.32064015 1.1301291 -0.82772475 -2.084002 1.034486 0.36356914 -1.8611944 0.38065508 -1.9365939 1.643517 0.6642791 2.5797286 -0.6223523 -2.0923193 0.20161678 -0.06629262 -0.79852074 0.46384078 -0.5687275 0.6008251 -0.09834496 -1.8282955 -1.8669513 -0.8330907 2.0445294 0.059247084 0.1666461 0.8287148 -1.6456221 -1.3434892 1.1852778 -0.8579979 2.3132405 -0.6884712 0.16613075 -1.4327334 -0.41803348 -0.18309833 1.8331003 -0.069145985 0.40423715 0.55335015 -0.78136635 0.26635957 -0.44146007 0.6058181 0.31613988 2.4946086 -1.0151163 0.249939 0.22867227 -0.15728572 -2.495312 -1.3275769 1.292109 -0.08484766 0.9095546 0.36162227 -0.31756276 0.22241312 0.31301114 -0.08396536 0.20864221 2.2985294 0.8713439 -0.00061316043 0.0515195 -0.48629242 0.022126421 0.16382228 0.13709533 0.5608112 0.76412666 -0.547765 0.08639444 -1.5722246 -2.1916964 1.1696533 0.4249319 0.18970229 0.06650964 -0.08594965 -1.8585975 -0.5524398 -2.4577565 0.65454334 0.1710164 -0.3474393 -0.514592 2.012343 0.3648743 0.6269644 -0.5650681 0.3932072 1.4321754 0.19650614 -2.7760324 -2.5908663 -0.6607753 -1.1176082 0.9913082 -0.8876563 -0.011498731 0.060982622 0.045268737 -0.65555114 -0.24730505 0.41177595 0.80869246 0.4194944 0.05978461 -0.0958935 -0.66461515 -0.5604372 1.7125759 -2.337056 2.1683846 -0.20954391 0.49547547 -0.07707059 0.699149 -1.2715238 -2.0657496 1.4481034 0.7198792 0.8335181 0.5902021 -1.0796517 -1.2654568 1.2932514 2.0903664 2.6622543 1.4108105 -1.8785762 0.624622 1.0974872 2.7093654 1.1023126 -0.5319933 -0.6666262 0.24854562 -0.81521034 0.39109588 -0.41150653 0.13282645 0.16564783 -1.8535773 -0.55959666 1.3426511 -0.82539564 0.8733285 -0.44633564 1.3517113 1.8047295 -2.2609305 1.1006992 0.3359027 0.18491983 0.44403264 0.80221623 -1.0249957 -0.34542555 -1.3139102 -0.07271895 0.6197091 -0.63615274 -0.39171433 -0.7459128 0.37848958 -0.78004396 -1.648386 0.028186455 1.6424111 -0.6946691 0.09276336 0.3722738 -2.4103932 -0.19798206 -0.2800615 0.19648917 1.2173684 -1.52835 -0.48540133 -0.108082086 -1.4772007 -0.00038082898 0.05388069 0.5509136 -0.2523473 -0.56072587 0.32263583 0.011880048 0.8050461 1.4728756 2.2995577 0.15393437 -0.8489888 -0.5102011 -2.6408143 0.8196399 1.7880096 1.6659253 1.4320481 -0.50990534 -0.32230633 1.1555465 0.1814954 0.14183055 0.7077358 -0.059455663 -0.38512683 0.14609179 1.1575695 -1.3033766 1.3701537 1.1282706 0.3347784 1.632704 -0.7961734 0.5232313 -0.2996573 -1.660658 0.66553366 -2.1743987 -0.17535707 -0.8116347 -0.6563097 -1.0902791 1.1103302 0.8871218
5a834371f7c444b08d3770a4c199dd3a.jpg	-1.6949426 0.117380396 0.44100833 -0.21417633 -0.28835705 1.152071 -1.7537802 -1.0256604 -0.85776144 -0.05706033 -0.3698184 -0.9708862 2.2663927 0.5004348 2.4800053 1.8487144 -0.89518225 -1.0506904 1.6648005 -0.17907205 3.3207314 1.0380993 -0.74315226 -0.8305745 1.9043599 -3.5290241 0.56600034 0.917576 -0.31618464 1.225872 1.8591009 0.27950808 -0.3510788 -0.30240732 0.26994687 -0.5375419 0.9087022 0.94899684 -0.30129135 -1.6567012 -0.016349874 1.9003035 -1.3125802 -0.47199038 -2.1507854 0.6145301 -1.9062617 -1.3261122 -1.1839098 0.87229764 -0.7514931 -2.2896943 -1.029145 -0.33141214 1.554632 -0.5362835 0.56303906 -1.1728806 -1.6376455 2.4632697 1.2618872 -2.3459756 -1.2686212 1.0428088 -0.20402774 -0.7175641 -0.48612094 1.6308309 1.3131392 0.8967062 1.8485738 -0.63597107 -1.3679696 -0.36414456 -2.2504053 0.904995 1.4391532 -0.32748824 -1.0077593 -0.032295972 1.8266121 -0.5553979 -0.33047652 1.56101 -0.774277 -0.694429 -0.12389062 1.3838632 1.057456 0.986234 -1.4394703 -0.24216588 2.169608 1.9730871 0.12647484 0.9305159 0.15960723 -0.24914967 0.76917887 -0.5183728 1.2732339 -0.20486905 0.19290741 -1.793597 -2.4067006 -1.0113965 -0.99381375 -0.64686865 1.6096063 -1.870427 -0.4143556 -0.45618302 1.636228 -1.1516049 -1.1571562 0.006005317 -0.7241 1.2558227 2.2011716 1.3388718 -1.7358918 2.1975179 -0.07574082 -1.4496133 -1.3049967 1.4337925 3.2193992 -0.87028444 -0.31683928 -0.1526785 -0.5085184 1.3983428 -1.3839959 -0.544623 -1.0941267 0.5919744 -2.8272438 0.53028315 0.5677837 1.0411859 -0.08725795 2.065205 0.04969006 -2.7387178 -0.3907714 1.0546218 -0.33267504 -3.0288165 -0.71169335 0.91054285 0.5709013 -0.2776116 -1.1528097 -2.0530717 0.24985796 1.7209076 0.7874947 0.5647666 0.07232471 -0.556836 0.29751533 1.5255738 -1.1250749 1.5905674 -0.60949004 0.2456362 -0.5319031 -1.9811345 -1.1592424 -0.14176172 0.63058484 -2.865243 0.10252288 -1.8529557 0.9207383 -0.58951795 -0.021967895 -0.06694856 -1.4971441 -0.7503406 2.6412768 -0.081570126 1.0729673 -0.098197326 -1.5890877 2.006545 -0.08923047 -0.6316614 -0.43396473 0.33343196 0.034622982 -2.0859966 1.5121468 1.3136092 -0.8939564 -1.9796486 -1.1956116 -2.0862224 -0.39109576 -0.3143744 1.1207882 -1.9533632 -0.8097667 0.27673608 0.7824364 0.31814197 -1.1156636 0.4980486 -0.3720224 -0.8479331 -1.3296853 2.0105095 1.3337364 0.64982235 -1.4564313 -1.8004929 1.7213427 -1.0022944 -0.0033009537 -1.0699733 -0.3961401 -0.7181626 2.22617 1.8751271 -0.6754757 0.22268198 -1.4084642 -0.51488394 -1.410703 0.88767534 -1.3475194 0.26635697 0.7299993 0.117881864 1.6841234 2.872287 -0.0036482932 -1.8235306 -1.2240417 0.5115714 -0.03516153 1.0791612 -0.8355235 0.2871797 1.0364379 -1.1768352 0.02592548 -0.51476294 -0.5729704 -0.81480753 -2.6243818 0.51167256 1.5487759 -0.8312945 -1.6651101 -1.9514091 -3.031872 -1.0299852 -1.1947757 -1.5452784 0.097921304 1.3353027 1.3185389 0.15170978 -0.89313436 1.1564646 -0.7698158 1.0125173 -0.38355184 1.3643674 1.8602604 0.12709615 0.050603688 -2.9556048 0.5706304 3.2403753 1.3676323 -0.90106183 0.09904795 -0.5849589 0.44931167 1.0759991 -0.037913725 1.562992 0.095890895 -1.5292025 0.13240358 -1.0376625 -0.7549963 1.6848307 0.1225049 0.45292708 0.23403704 0.14417106 -0.054995105 -0.3101874 0.02373986 -0.76667064 -0.6397972 -1.5280753 -1.1315713 0.5892904 1.2550082 -0.71400595 0.675625 -1.0972854 1.1458114 -2.546686 -0.33155692 0.8160711 -1.9653925 -1.6137121 -0.5586289 0.81365085 1.7711649 -2.4325755 0.26182866 -2.25781 1.1062127 -0.7991827 -0.52140236 2.148975 -1.5653207 0.40363747 0.5926817 -0.52027816 -1.3524721 1.1610377 0.761197 1.7769456 -1.0673976 1.2670563 2.331897 1.1686926 2.3253324 -0.8414266 -0.7028994 -0.8651434 1.4182835 1.1663272 1.5675919 1.413914 -0.74888045 0.50113237 -0.62435716 -1.6086977 -0.68477017 -0.99556595 -0.8660216 1.2728539 1.3705426 0.58375996 0.9822941 1.3357328 1.0548973 -0.63264096 1.5357985 0.9812226 -2.3322685 -1.588921 0.2976511 -0.7751833 -0.6938718 -0.4600593 -0.69539595 -0.54921496 0.8325289 2.3802207 0.7668575 2.1344564 0.7122683 -0.5809832 -0.14167435 0.21248282 0.0646345 1.7596656 0.40835893 2.2870781 0.36697495 -1.1104282 1.3692453 -1.1739577 -1.4806799 -0.9263594 -0.2559662 -2.187894 1.0195501 0.199591 0.5839875 0.88868445 2.1457722 2.2778568 0.14053738 0.038956266 -0.08851154 -1.1267226 -2.198612 -1.0958914 0.159145 -0.7031512 1.4772809 0.8362333 -1.1763991 0.6726298 -1.9148917 -0.69616234 -1.9225669 0.12490891 0.14790575 1.170177 -1.1652336 -0.318239 1.3754746 -0.681668 0.48801476 0.12640029 -0.603268 0.9384221 -0.95634806 2.3114755 -0.6285472 1.2381861 -1.4215837 -0.24222594 -0.26018843 2.7751036 -1.7349359 0.3492231 -1.3373337 -2.0815003 2.8807924 -0.63014936 0.37167466 1.4113272 -0.42751738 1.6417274 -1.9095281 -0.4343601 -2.871385 -1.8379263 -1.7588775 0.48709452 0.5450343 1.2595865 -0.0118627995 2.5374992 0.13887234 0.064380944 0.25935093 -1.2407342 0.46868417 1.1631956 -0.32160535 -0.92763066 -1.563864 -0.94963646 1.9297848 1.4838023 3.0881276 0.7174604 -0.12989953 0.5158906 0.053463448 -1.2487414 -1.5295721 0.5904857 -0.42782733 -1.1805317 -0.41965294 0.56249845 -0.96190536 0.28723997 -2.220321 1.4636309 -0.84274226 0.44895363 0.30272183 -0.07902477 2.1974077 -1.4213192 1.4118532 -1.4138494 2.8860598 0.5389815 1.4709475 -0.74224824 -0.19031909 1.0688084 0.28467056 0.19865806 1.9315052 0.11199187 -1.1963905 -1.2558106 -0.7582127 -1.9937996 0.51771754 0.3986255 1.2393748 1.0799377 0.6629306 0.43872324 0.15820752 -0.18758337 -1.5816693 -1.599933 -0.7572491 0.3809345 0.11756613 1.3906801 1.8709394 -0.57417136
5b965e62b702422f8c47df9652bbc3ce.jpg	-0.0076282322 0.7007034 -0.52568275 0.29554734 0.34070644 0.29773942 -0.16377947 0.48796314 0.64554507 0.35785916 0.34877774 0.943933 -0.8143885 -0.23202305 0.840767 -0.59738255 0.5091549 -2.271895 -1.1097492 -0.7882122 1.4592389 1.8016561 1.6338959 0.74413186 -1.5725029 -0.262344 -0.33741415 -0.6114793 0.7437557 0.0021200776 0.05870531 -1.1406473 -0.41120112 -0.48622304 0.8117366 -0.28018016 1.6133373 -1.347257 -1.3023714 -0.2728468 0.7818128 -0.7513287 0.98664045 -1.198419 -0.79798424 1.0550648 -1.1536639 -1.4331748 0.6605618 -0.9802734 -0.90206754 0.6666877 0.30530992 0.5936702 -0.777872 1.2253122 -1.0783647 -0.7704465 -0.28060657 0.7590642 -0.38118765 0.029279992 -0.31362283 0.46225828 0.47760433 -0.3866867 1.3976312 0.629142 0.14309888 0.78397924 -1.4250469 -0.7877173 1.1210823 0.48477688 -0.13800247 -0.12521255 -0.71022135 -1.1375524 -0.36848086 -0.9738047 0.81109387 -0.2982186 0.56978565 1.141399 -0.06045913 0.38433576 -1.7790687 -1.3040466 -1.6424751 2.540994 -0.13299824 0.3616696 0.07180459 0.44715053 -0.06916961 1.681008 -1.0967133 -0.2167227 0.19264476 0.7548629 0.33973897 -0.4339461 0.31345016 -0.18892165 -0.03391292 -0.74370927 0.24716352 1.7991475 1.4496083 0.11740595 1.3440402 1.9523401 0.5793825 0.8042705 -0.9061756 -1.2435623 -0.31634733 -0.0022774674 -0.035797503 -0.62289053 1.5790654 -1.5106766 0.48399723 -0.1190509 -0.40366825 -0.5734161 0.3182822 0.723558 -0.7833622 -0.07685479 -0.40022862 -1.6108351 -1.2010342 0.6075357 -0.06519398 0.25209254 -1.631637 -0.08999735 0.72637415 -0.5150065 -0.1867835 -0.22269765 0.9883851 -1.4344783 -0.39166206 -0.39535958 -0.04778777 -0.67919135 -0.24332531 0.8022832 -0.548133 -0.12386976 0.021469116 -0.73686045 0.11831448 0.124301046 0.76833665 -1.3297278 -0.43212315 -0.2392135 -0.058911808 0.35102803 -0.89389414 0.293557 -0.09716312 -0.25437424 -1.0167896 -0.20918444 -0.59876215 2.2211769 1.4253885 -0.47879708 0.6911684 0.20215893 0.26688224 0.40396336 1.0905817 -1.9887217 1.7689832 0.007943809 1.3452909 0.6932462 -0.23889104 0.9280009 -0.6649528 0.31774968 0.8963674 -0.12604508 0.97998905 0.4805093 2.0131419 0.6428062 1.0846728 0.6231177 0.95753103 1.188126 -0.05522053 0.06439721 -0.70317554 -0.26214236 0.51665884 0.7068016 -0.9398138 -1.2469131 0.060342498 0.37503788 0.59401536 -0.1766547 1.0907084 0.37873468 -0.34413266 -0.2955617 -0.98657423 1.5354605 0.15750994 0.44578037 -1.7896172 -1.0805018 -0.40180144 -0.14796107 0.62768984 0.94125724 0.821536 0.15098004 0.61814827 -0.2093423 -0.72697365 -0.55872995 1.5225136 -0.35639644 1.0182451 -1.476566 -0.37267 -0.89621186 0.49576607 -0.39713642 1.3295623 1.6534667 -0.044099502 -0.42929 0.26385266 -0.16923463 -0.61975175 -0.372982 1.0904515 -1.2501523 1.3884758 1.3094461 -0.901623 -0.7432311 1.5472363 0.93393856 -0.3399746 0.992062 1.4670103 -0.8574628 -0.013088852 2.21027 0.47617283 -0.5310919 -0.9834658 0.010733068 -0.9634826 -0.20751692 -0.16922407 1.6021814 -1.0028682 0.67145264 -0.22013342 -0.82038665 -0.6556225 0.41687906 -2.1517076 -0.8991243 -1.4663004 0.31631386 -0.5582093 -0.37453413 0.72580254 1.1084168 -0.7591547 -0.63978684 -0.22325729 0.34188432 -1.0017834 -0.027854264 -0.44951922 1.5266848 -1.017153 -0.2268859 -0.61911875 1.0841647 -1.1001569 -0.84566474 -0.15563557 -1.4692979 0.4428782 0.61112 1.470262 -0.110888585 0.8987286 -1.6296655 0.2098769 0.5245239 -1.0769854 0.9255343 1.4296914 0.5290576 1.0171511 -0.69868153 -1.3820918 -0.6042996 0.7333627 -2.149718 1.0888096 0.15709908 0.4801423 -0.2660536 0.121850014 -1.5722023 -0.9237953 0.15198456 -0.26721233 1.3072108 1.5589054 1.1547587 1.0204271 1.469193 0.8480353 0.91133755 -0.4103372 1.8946818 -0.20503193 -0.5238343 0.2578293 -1.6371809 0.16860533 -1.4548512 -0.7083386 0.17864753 -0.29030317 -0.7677386 1.4604888 -0.4011734 0.13069212 -1.394519 -0.17447281 0.6092069 -0.6668451 -0.59417635 -0.22461078 -1.8856881 0.47674137 0.8342618 0.7590461 0.5410844 -1.8095901 0.8109248 -0.06265953 0.35644162 1.2136288 -0.7716705 1.1460575 -1.6837144 0.9670677 -0.7992081 -0.24527445 1.6611769 1.2270588 -0.24272968 -1.0631204 1.5470093 -2.2913964 -0.6550244 0.8581213 -0.59698915 0.2921638 0.48118165 0.55987585 -0.7571748 0.25256458 -0.43597358 -0.68817323 0.56420004 1.1881086 -0.9338509 -1.2368869 -0.41283783 1.4612471 -1.8596965 -0.7479014 0.1796764 -0.8758841 0.4232138 -0.72385365 0.52184016 1.4519404 0.23069888 0.24912016 -0.3881408 -0.3748204 1.2283127 0.5044606 -0.7549967 0.20331381 -0.83062464 -1.0175837 -1.8452566 0.32672375 -0.18614784 -0.23039722 0.32184625 1.7848308 0.45201817 -0.5716927 -0.47283998 1.0427927 0.9175151 0.05871352 0.2137549 0.30908117 0.71278846 0.9433155 -1.4593046 -2.8161876 -1.8775959 -1.6665536 0.8599502 0.855561 0.2310999 0.7874602 0.2051747 0.6816383 0.77932525 -1.0239497 -1.1625141 -0.74397063 0.22986993 -1.2976719 0.4204218 -0.12968476 -0.852358 -1.3580186 0.023466736 -2.6986427 -0.10524005 -0.78105545 -0.80789196 0.8580681 -0.16768128 -0.07154359 2.0616434 -0.07383981 0.20551546 1.5743179 0.062579885 0.40626255 -0.545361 -2.4777627 -0.64438677 0.33351478 -0.90506613 1.1426457 -0.41170672 1.4259503 -0.24554113 -0.5457617 0.4593494 -0.62107754 -1.8827362 -1.5755372 -0.17164804 -0.13679972 -1.6588827 -0.602983 0.41354662 -0.36873192 -0.23295534 -0.273834 1.4068116 -0.55462193 -1.0138276 -0.51262283 1.227881 -0.21235244 -1.0090724 0.064724356 1.6895984 0.6166265 1.2656536 -1.5991702 -0.34118834 1.4706528 -0.12779434 0.48912877 -1.8980216 -0.503283 0.24075466 -0.48647866 -1.8324082 0.3566875 -1.0424765 -0.26161003 1.3337836 -0.07898912 -0.14819086 0.21211442 -0.90704215 0.026159981 -0.49510902 -0.51307404 -0.6441244
5bb9229d33de4698aa63a0790bfcdfa1.jpg	2.0498965 -1.2869565 0.64739764 0.78733516 -1.0783061 -0.31165513 1.4843079 -0.03037738 1.907457 1.9447718 -0.5945554 0.90046954 -0.62617224 0.3197881 -0.5326961 1.1228037 0.72700393 -0.11839932 -1.9831072 0.37560174 -0.48516366 0.72265226 0.3511569 0.53399223 -0.33587414 -0.37116927 1.0650413 0.33386356 0.2510832 0.9998673 0.1411323 -0.47898814 -1.3500291 0.34149492 -0.84419805 -1.618481 -0.8752293 -0.38178656 -0.28494745 0.68720216 -2.103072 0.43777204 0.61918426 -0.7324331 1.7317683 -0.3461405 -0.012823284 -0.91008294 0.56973666 0.37542593 -0.9064864 -0.8148447 2.431567 -0.002629228 -0.5879579 0.4831247 -0.11715537 -0.8375703 1.0424294 -1.7294158 1.0942106 -0.9550637 -0.34450567 -0.22649212 1.2276294 -0.39588824 -0.33665714 1.7804714 0.22460741 1.4603877 1.2429392 0.930068 0.7429731 0.0653793 -1.2445492 1.2069303 1.1181669 -0.04829375 -0.47917628 -0.07252714 0.4546458 0.24781367 -0.55625695 -0.49470454 1.0733167 0.11605018 -1.6775833 1.3611029 -0.88472825 0.51352066 0.94549716 0.039533973 -0.5987531 -0.24091287 -0.31162468 2.2702494 -1.659136 0.93483734 0.5764475 -0.80420816 0.26415896 0.9077685 0.5569562 1.2501501 -0.46892276 -1.1863205 -1.3086425 0.9970413 0.79078776 1.9095734 0.19487332 0.95899177 0.21043666 0.81980115 -1.0712638 1.6844486 0.33141795 -1.1368618 -0.5886656 0.23377402 0.55557466 1.2316138 1.7077149 -0.68985987 1.321302 0.366306 -0.1918881 -0.3366568 -0.49590904 -0.2375282 0.44172716 0.7657331 -0.80496997 -0.9980711 -1.8884128 0.67539567 0.03280324 -0.2907809 0.99873406 -0.3089697 0.42066047 -1.2614923 -0.8309589 1.2930839 -0.06492829 -0.2627303 0.69332004 -1.1119158 -1.2038051 0.02134119 0.2895017 -0.41025963 0.7883241 -0.66604865 -1.2878288 0.69785035 -0.46085083 -2.348246 -0.045103252 0.19006963 0.9904236 0.77097934 -1.1985077 0.40763602 -0.09980963 -0.9012288 0.8120004 -0.9843397 0.51962036 0.925373 -0.4246205 -0.87750673 -0.32960314 0.24284156 -0.69845295 0.1564093 1.893953 0.12718701 -0.6660364 -0.07186954 -0.6380176 0.34269482 0.9089854 0.92610276 0.75684136 0.75863 -1.0057747 1.1912742 0.9607296 -0.12203394 0.2414022 1.3853477 1.892602 0.27287948 0.43677664 -1.0662447 -1.0326307 1.407953 1.0638312 -0.01764011 -0.5131248 0.20598775 -0.65418804 0.09401423 -0.31315514 0.2728826 0.12003425 -0.5896542 2.0655534 0.75016415 0.76638377 -0.21752867 -0.19278416 0.7814833 0.0899022 0.57268286 -3.3697762 -1.9790884 0.7515806 0.45414206 1.6503897 1.120956 0.17368653 -0.6300449 -0.025174458 0.81247485 0.2292608 0.7251787 1.3553438 -0.073763624 0.14882639 -1.0767395 1.548066 1.2904536 0.7989784 0.340795 -0.4468258 0.8066207 -1.2739465 1.0973428 -1.0633386 -1.103962 -0.77211213 -0.51914334 1.0436956 0.77157557 -0.6964996 -0.1146328 0.06833269 -0.8972965 -0.92345643 0.93119687 1.6234884 -1.218309 -1.0019912 -0.4736593 -0.46052206 1.7749099 0.13075337 -0.74880624 -0.4438369 0.75773144 0.8619593 -0.34719145 -0.37843272 -1.1178406 -0.7757762 -0.1006147 -0.39263964 0.14176041 0.4160231 0.0017935634 -0.5530038 0.031942815 0.806196 0.9291639 -1.0087366 0.9974404 0.29138562 1.1309202 0.24856323 -0.13595405 0.023262218 0.07859281 0.22024122 -0.8936974 -1.2967061 0.8085723 -2.423691 -0.35439125 1.6749635 -0.611812 -0.070031956 -1.5429114 0.5581187 0.9099047 -1.6061127 2.4409082 0.16272399 1.5889255 -0.49180543 0.44715533 0.56380874 0.5869994 -1.0579897 1.3004527 -1.3370898 0.61056614 0.2583028 -1.0234703 -0.5434103 0.66961986 -0.626045 0.3906707 -1.3587371 0.8843909 0.13167354 -2.6805391 1.0752989 -0.7191351 0.60793644 -2.1083431 1.2055645 0.43192858 1.8292916 0.51865476 -0.70958227 -0.83823216 -0.34739208 0.36980158 -0.113246724 -0.86955595 -0.9832559 -0.57905775 0.51368463 1.3547416 -0.5817091 0.6318344 0.5830366 0.010676735 -0.37971526 -1.3630925 -0.07648297 -2.1293807 -0.7087118 -0.09186746 -1.0522696 -0.123413116 0.6939884 -2.4721496 0.12681054 0.54527265 0.32708615 0.6694708 -1.4587759 -1.1688485 1.7374071 0.8469312 -0.18230902 -1.2630523 -0.38036567 -0.8071674 0.28357905 -1.1905686 -0.2257413 -0.8697091 -1.3001662 0.4761864 -0.7118455 -0.054077383 -1.1585708 0.050151967 -1.0979193 1.3635552 0.1270433 0.6427662 -0.44909477 0.11842751 0.114055045 0.41658688 -1.3626997 0.56958944 -0.1850386 -0.23834856 0.23256993 0.027271397 -1.1202611 -0.15724927 -1.1472597 -0.97171944 0.29511443 0.49297714 -0.8275766 -0.86205924 -0.4139225 0.7468785 -0.004948452 0.40776452 0.11482118 -0.5116439 -0.13666402 -1.2770541 -0.05904024 0.9414792 0.34100053 -1.3463773 -0.5353273 -0.21429601 0.379591 -0.16302976 -1.349787 0.63715696 0.88387173 0.061109614 -0.7711417 0.13200417 0.9317904 0.5949777 -0.2232076 -0.66623807 -0.14465733 -0.4934969 1.2825025 -1.1337667 -1.6713716 -0.2832442 0.41470456 0.27363786 -0.6521592 0.72244334 -0.12221525 0.8935233 -0.89423 0.54242074 -0.98240256 -0.9058809 0.69726837 -0.7754133 -1.7076126 1.9067467 -0.04693746 -1.7295367 -0.4699832 0.9115195 -0.3535462 0.02663713 -1.2734603 -0.6758824 -0.43267035 0.107571214 -1.5837567 -1.5435038 -1.7367134 0.37197137 2.452106 0.8252412 -0.15460227 -0.9436802 0.46058047 -0.21291088 0.48146093 -1.598724 0.7746408 -1.2495266 1.4729881 -0.84047383 -0.10398166 0.6183438 -0.73697543 0.542951 0.07639536 -0.27039096 0.44003177 -1.7636478 -0.6956484 0.250019 0.23041168 1.2124758 -0.012372062 1.2484801 0.38100252 -0.32747576 -0.57918954 -0.28779775 -0.3329407 0.3394673 2.024776 1.7617669 -1.3660723 3.4159875 -0.03671643 -0.1623464 -1.3085175 -0.25991508 -0.15903804 -0.87586534 -0.7872556 -0.9721006 -1.2651258 -1.603802 -0.8829666 0.69961065 0.23240727 2.2680361 -0.31185532 1.6498333 1.5415068 0.10256428 0.35916686 0.075280376 0.13382858 -0.89736414
5cc905a2e9fa48b2be835d2bf9bea962.jpg	2.7176502 0.5781868 0.09982792 1.5124801 0.05468019 -0.2440201 1.5106184 0.67390376 0.83652407 0.72523415 -0.7576082 -0.84185034 0.26136047 -0.018500376 -0.3305118 0.8720716 -0.58422107 0.58146065 -1.0479014 -2.4016623 0.56258845 0.12759557 -0.7792157 0.7049727 0.15407121 0.56746435 -0.30633903 -0.6445521 -1.6405482 -0.5023929 0.3051617 -1.5227965 1.8031806 -1.2629716 -0.4639693 0.38031763 1.4353778 1.2258755 -0.26058763 0.8189905 -0.7928146 1.8954496 0.8052093 -1.2192296 0.3799149 -0.4816528 0.7883908 0.57221484 -0.39841884 0.08256163 -1.6753352 0.6854846 1.6327327 0.4966054 1.3362261 1.6277099 -0.9316307 -1.7650541 0.6656989 1.5193424 -0.60205674 0.26958013 -0.5372708 -0.4825457 -0.8208379 -0.23025317 -0.435437 -0.17385116 0.42777723 0.7582277 -0.37201136 -1.5635366 0.91614854 -1.4425113 -0.8894315 0.60375625 -0.9170372 0.026944268 0.4185374 -0.8222678 1.3551369 -0.2267986 0.4365356 0.86509305 1.982103 0.15725872 1.3263843 -1.4081106 -0.24000809 0.67071056 0.8076 1.1706653 0.9279517 1.0826386 -1.7645781 -0.3547728 0.09218621 -0.76615727 -1.4418573 -0.102904156 -0.7077961 -0.23432356 -0.22703964 0.27250916 1.0316765 -0.29930106 -1.1189766 -0.86954284 0.35603395 -0.29063207 -0.5568863 -0.6922121 1.137713 -0.7795765 0.4221518 -0.6237807 1.0293407 -0.27176064 -1.014383 1.0865356 1.6663537 -1.5850087 0.78968996 -0.78220636 0.09616477 -0.6100181 1.2987843 -1.2471073 0.42546034 -0.21318053 0.21377274 1.2030561 -0.83564466 0.9268857 -0.011036698 -0.11792294 1.6877537 -0.57399803 -0.06859816 -0.07275034 1.676985 -0.033532735 0.6392825 -1.8612223 1.162232 0.17418137 0.24008903 -0.69305885 1.0464101 0.25362885 0.7661923 -0.43261123 0.08444149 -0.7535891 -1.0239323 0.4634142 -0.5459439 -0.29336473 0.45414373 1.3544768 0.07085386 0.98090076 -1.0760417 -1.403328 1.8314286 1.5207481 -1.5529468 2.1154628 -0.36822143 0.5887487 1.0801263 -0.41655433 -0.53301287 2.305011 -1.375463 0.50274706 0.6576994 -1.007376 -1.2047293 -1.5454019 -0.15875888 -2.6519966 -1.6641749 -1.219871 -1.714467 0.2680639 1.2991123 0.17200299 0.8389108 1.0679922 -0.7250326 0.8653826 0.25194618 1.0161141 -1.7077022 1.1458225 0.74774146 0.109284826 0.7796167 -0.30321074 -0.7412229 -0.2027781 -0.7225441 -0.07172637 1.2466258 0.010684751 -0.09341559 -1.4093482 0.17977864 -0.56657815 0.11443032 -0.6074381 -0.5364301 0.32637474 0.47218335 -0.50608546 -0.9155349 0.15103446 -0.9927361 -1.3152741 0.21903396 -0.24898621 -1.343922 -0.06667268 2.4238474 -0.28540885 -0.709833 0.7590289 0.030581921 0.3824538 0.45729193 0.47582105 2.0051513 0.10064152 -0.15156397 0.34094584 0.070344 0.1013492 0.86337316 1.434993 0.49669304 0.6739366 -0.80057013 -1.2344517 0.6068941 0.96449465 1.3079997 0.017538652 -1.2697332 -1.2852864 0.85702777 -0.6028328 0.42937088 -0.38273114 -0.41074768 -0.12514722 -0.675127 0.8988177 1.0934384 0.060240984 0.13759631 0.3093836 -0.4524791 -0.6308762 0.19479603 -0.055525973 -1.1652762 0.5552412 1.1936222 -1.6035258 -1.6431193 0.107229665 -0.99141043 -1.885198 0.30953872 -1.3801488 -0.11153215 0.52882767 0.6594686 1.6165144 -0.064255215 -1.3902913 1.6675752 0.68947315 0.58887017 -0.22957142 0.061407097 0.4028214 -0.20088263 -1.8248584 0.9823404 1.0147821 1.4802349 -0.775027 0.83211905 -0.86170566 1.2602432 1.811019 -0.13816695 -0.6566957 0.91518486 -0.25463384 0.45433182 -0.5290215 0.31400177 -0.1707513 -0.75200045 -0.21212745 -0.12359661 -0.1032726 -0.6307783 1.0568838 1.1808758 -0.036016785 -1.2529607 0.62493724 0.761245 0.5883161 -2.162264 0.68034285 -0.37571424 -0.36301547 0.47083938 -0.18510471 -0.083072975 -0.0074029565 0.4275614 1.9871941 -0.095261246 -0.20978865 1.002885 0.98434705 1.1583616 1.0625039 0.3441153 -0.14510635 0.16992863 -0.7735535 1.3068248 0.4396162 0.46628642 0.4770494 -0.91648287 -0.10914267 -0.43162665 0.9012057 1.740957 -0.41213387 -0.115861274 -0.5146754 -1.311292 0.36644876 0.68381596 -0.48176575 -0.4035535 0.4368353 0.50084466 0.7981905 -0.6014221 1.330409 -1.3766197 -0.10562229 0.91683954 -1.2315943 -0.40230075 -0.84126365 -0.42043614 -0.41950226 0.27328795 0.96267265 -0.99508435 -1.0966043 0.6559289 -0.42928565 -0.84002626 -0.36381167 -0.62146187 -1.0299978 1.5982274 -0.945719 -1.7729714 -0.6404272 0.6969446 -0.5069426 1.9972473 -1.1297839 -0.2152837 0.5311811 -0.11590643 -1.0569761 0.44772124 -2.0178163 1.0374174 -1.2467936 0.038534187 0.7872288 -0.69242585 -0.77598614 0.6468788 1.7538054 -2.47512 -2.0940678 0.2719347 0.3533916 -1.0679919 0.5085117 -0.9649344 -1.0485669 -0.24162936 -0.5174236 -0.06517069 0.15162168 1.2217759 0.60290915 0.11565805 -0.388626 0.62181234 -0.07625367 0.15587085 -0.27479875 0.507727 1.0405587 -1.3935915 0.5600046 -1.5867311 -0.45553374 -1.6516678 0.92680717 -0.1519895 -0.66330487 1.4703304 -0.77012074 1.4529792 -0.2733407 1.6927745 0.42022395 0.10155794 0.71792305 -0.0016805381 -0.719054 0.4666312 -2.0651817 -0.61651194 -0.16919585 -0.50065815 1.9030341 0.82974696 0.54666996 1.2094676 0.49867287 0.3190272 -1.2319206 -0.59374607 -0.9572037 0.7362709 -0.3068409 -0.5935825 -0.5232606 0.115974426 -0.98323524 0.89359754 0.60436267 1.7987909 0.2376847 0.9952507 0.25212395 -0.665048 -1.0341465 0.765368 -0.21342035 0.6321142 0.7586107 -0.60121125 -0.39444876 -1.0218127 -0.54071456 0.9306512 -0.6668979 0.3471242 -0.28820375 -0.055194676 -0.4008333 -1.835654 1.3893032 0.027874999 1.4700906 1.1366748 0.8849361 0.57563496 1.5756404 0.84023917 -1.2705845 -0.52296877 1.1238924 -0.029970296 -1.0386655 -0.7169159 0.16898173 1.0694942 -0.24613445 -0.9228428 -0.16891259 0.8443874 1.7532065 0.648085 0.6721654 -0.040513143 -1.4307508 0.905067 -0.6768416 -0.2484017 0.71670043
5d0e51b93da9419b9ad9c847a78a6f37.jpg	1.8025355 -1.0672029 -0.07471126 0.77773064 2.9211664 0.22111242 0.58247066 0.59415615 -0.76387495 0.7128653 -1.1047779 -0.29520214 -1.0224829 0.09391834 0.8201753 0.3195749 0.21489514 -0.32739088 -0.69046384 1.2204689 0.4525216 1.1735784 0.37723944 0.8772843 0.66697013 -0.87073267 0.26796684 -1.6789205 0.13075927 -0.80244005 -0.758405 -0.85892695 1.2060425 -0.42642307 0.2622315 0.35238013 1.6745782 0.05318658 -1.0046848 1.5088814 -1.4509561 -0.2267483 0.90591097 0.27068752 1.0205475 0.08970155 -0.8353127 0.7161546 2.502976 -1.8304209 0.9249216 0.4307087 0.8442302 -0.31106812 -0.9411782 0.29583836 -0.34094155 0.4724899 -0.41848478 -0.97041816 0.51678646 0.4268701 1.0566549 0.30549103 0.36412728 -2.0292745 0.19952369 -1.2881812 2.2043922 1.5090227 0.55753577 -0.6858954 0.61004937 0.0028129849 0.18214783 0.8486547 0.80093473 -0.3435567 -0.5242715 -0.34621206 -1.6579981 0.71367884 -1.6430681 0.75603396 -0.6143512 -1.356683 0.48835704 0.11460172 0.2765414 1.4520831 0.11602737 0.12127559 1.0850676 1.5814891 -0.6794536 0.09942122 -0.7948395 -0.40149182 -1.0969716 -1.0147705 -1.5533756 2.8765585 -0.70456505 1.265568 0.59420216 0.020331614 -0.4790701 1.0467739 2.0276728 0.90909755 1.105873 -1.1498982 1.4651719 0.75933915 -1.0885692 1.705301 -0.14568995 -2.430453 -0.9753584 0.94945604 -0.05223674 0.12273798 0.4906087 -0.85661316 1.5656035 1.3114932 -0.811332 0.22277638 0.6336062 0.067829154 -0.1218749 -0.37200287 0.13981786 0.31176192 1.7751243 0.41969255 -0.79131657 -2.6596074 -1.6008502 -0.3734979 -0.19018495 1.1467588 0.37200934 0.025281921 -0.9395997 -0.4961927 0.4127549 -0.36470738 -1.3721484 -0.31731814 0.38494283 1.0785398 -1.475611 0.029690433 0.660411 -0.051092938 -0.26660323 -1.2366029 1.2321111 0.90752536 0.13498493 -0.7281843 -0.10457148 0.4389238 -0.18152064 -1.551755 -0.657188 -0.95256054 -0.8025659 0.4694833 -0.5737478 -1.0200417 -2.1347432 0.13864623 2.6186166 0.56950617 1.0173936 -0.18538651 -1.6664063 0.46100664 0.69412345 0.13070948 0.021525204 -0.78324527 -0.4459533 -1.6246619 0.37001014 -1.2800114 1.5675817 0.21404774 0.25824654 -1.9762577 -0.39209038 -0.4717939 1.42175 0.5533093 0.58738506 -1.5424659 0.166143 0.17158219 -0.8895801 0.5405107 1.7969911 -1.1554173 -1.0108434 0.16712976 0.47106913 0.56491303 -0.54619527 0.9774542 2.4898107 2.5666733 -1.0557437 0.53897524 1.2080288 1.0878935 0.66980654 -2.1567981 -0.919366 1.6456219 1.436163 0.99691635 -0.82027346 0.0037162006 0.90529954 -0.06705695 0.6320408 -1.3358507 -0.34812278 -0.11776827 0.47770756 -1.6518947 1.3742793 -1.9745902 -0.22969279 -1.3412468 -0.5840682 -0.49599096 0.40117896 0.088929504 0.5189777 0.47235304 0.6973583 -1.1845071 -1.3990779 -0.25258568 -0.46015707 0.8947362 1.0509464 -0.26838008 -0.65654933 1.7443986 0.90035176 -0.18326393 0.37981784 -0.20767179 0.93337023 -0.40017796 -0.16095388 0.7893293 0.53487295 -0.969987 1.2772781 1.4130089 -1.8389788 1.0507113 -0.38823378 -0.4933013 -0.04019338 0.52988446 -0.1167586 -0.6096446 -1.1875856 0.08972287 0.7009262 0.48327044 0.32537264 1.8040984 -0.014407065 1.3376179 -1.5174339 -0.7446869 -1.4410477 1.0265597 -2.5184255 1.4040774 -0.90994656 1.4194237 0.6051759 -0.09948344 0.20362373 0.08034664 1.166404 -0.009150282 0.60947365 0.24653947 1.4971961 0.33118492 1.8288065 0.09508584 -0.9127852 1.2234377 0.45319176 -0.2761938 0.83898866 0.7028559 -1.172984 1.5655239 1.9810228 -1.2993611 -1.4291027 -1.7558596 -0.8479706 -1.045634 -0.939674 1.8564626 1.0051135 0.8386445 2.2105486 -1.1104939 0.4293346 0.59794086 1.6764375 -0.61359274 -0.8678408 -0.50689805 0.32958505 -0.5796183 0.9177127 0.8536897 -0.5768543 0.98838526 0.46098095 0.22389725 -0.038323052 -1.331213 0.22222714 0.09630746 -0.4266646 1.4244798 0.50238585 0.10970488 -1.2780992 -2.7336555 -0.13419488 -0.24058795 -0.5887114 -0.6782837 -1.4790777 -0.57332677 0.64511514 -1.5221953 -1.284016 -1.4612696 -0.48054445 -1.0233797 -0.6494518 0.08448753 -0.2702251 2.2720022 -0.46397573 1.0338657 1.5493978 -1.6017677 -0.64913994 0.48180744 -1.1848639 -1.0130484 0.6638354 -2.2643726 0.91636765 0.25599882 -0.12605213 -0.69989717 -0.4038451 2.817956 0.57897717 -1.1219006 -0.81578696 -1.3794844 0.9378959 0.16619772 0.81979877 0.23638901 1.3563671 -0.81753856 0.20875308 -0.41934147 1.0711166 -0.78444797 -1.3738775 -0.662898 0.85819876 0.28178525 0.43666175 -0.14814903 -0.46673572 1.03454 -1.6093764 -0.1996167 -0.115995616 -1.395453 0.02356302 1.0856127 0.6189291 -0.7325955 0.44769558 0.09737987 0.6907531 -0.31686926 -0.8773546 0.34985882 -0.27084443 0.003159456 0.37308207 -0.86736476 0.6765938 -0.06746789 1.4135488 -0.37386662 -0.13789544 -0.043008476 -0.51335806 -0.5210898 0.57130396 -1.2952443 -0.6404499 -0.060906194 -2.384261 -1.1222066 0.033421583 -0.8836038 0.92262095 -0.23846027 2.2390616 0.95473707 -1.3166764 0.08162972 0.27366948 1.6418208 -2.0908494 -0.4688779 -0.72257113 0.41760904 -0.99697113 0.8995923 0.74920684 -1.1562552 1.4631597 1.6603975 0.87560403 0.19042909 -1.0880474 -0.3838969 0.61168647 1.7499546 -0.0941281 0.39186844 0.09484789 0.25769642 -0.074329816 0.15986037 1.033812 0.8959767 -1.140252 -0.56212217 -0.35176277 -0.4293395 -0.42513815 -0.26394555 -1.1368155 -0.072486445 0.21627842 -0.96866304 -1.1861358 1.5478567 0.8150281 -1.2565114 -1.2889404 -0.391717 1.3051612 0.026230022 -0.38966233 0.8932331 0.56043595 0.52875465 0.31497473 2.6628869 0.9192221 0.9397198 1.6461197 1.194758 0.76098126 -0.54699606 2.0939372 -1.6093068 -0.1335296 -1.667797 -0.5819214 -1.9195607 0.8559349 -0.08235393 -0.13897577 0.19573389 -1.9604735 -0.83228403 1.0037277 -0.7259714 -1.4742961 1.3583134 0.64704496 -0.7937694
5d38bac08f97464d93f181f47063d629.jpg	-0.170393 0.30090606 0.13295612 -0.2972354 0.39775202 -0.26833665 0.4090344 -0.086356156 -0.16589451 -0.659336 1.3660694 0.0701428 -0.58879054 -0.83894867 -0.9645848 0.43769848 0.14048281 -0.015294865 0.807699 0.33664352 0.99029326 0.95753765 0.74529755 0.017197147 -1.2450782 0.629745 -0.049699053 -0.09529337 0.32878917 -0.47593233 -0.28027487 -0.22781076 0.46407977 0.803239 -1.261011 -0.14341156 -1.1575708 0.56970197 -0.13279396 -0.13472801 -0.40556192 0.82287735 0.10345879 -0.10329849 -1.389613 1.2175606 -0.5459284 0.3377496 -1.3514767 0.24201672 -0.14257127 0.20487727 0.27008638 0.010188915 0.31883317 -0.15174733 -0.4279027 0.98570347 0.7806778 -0.55043167 -1.4575351 0.07974312 -0.32677114 0.21005806 -0.6822458 -0.58910924 -0.06877483 -0.18073559 0.28494257 -0.28070855 0.4707787 -1.2062242 0.8127522 0.30203566 0.117529854 -0.6479432 0.9620668 0.4772724 -0.9817638 -0.39944217 -0.69601834 0.66535515 0.40567812 0.6948703 0.4339381 -0.8109027 0.13111413 -0.42276746 0.32912657 0.1975767 -0.49438578 1.6454798 0.9236953 -0.65286595 0.40457937 -0.29135492 -0.43319273 1.2179604 1.0203109 -0.39003998 0.18954517 0.0123881735 0.12415649 -1.0211543 -0.30342487 0.21571755 -0.35711 -1.2881864 1.0412229 -1.7744355 0.42323261 -0.13043967 -0.16303939 -1.0567236 -0.19549729 -0.55652416 -0.4514479 0.66288847 1.26955 -1.304645 -0.6644931 -1.8429307 -0.41586888 1.0428724 0.011208259 -0.12745626 -0.6983059 0.15800388 -0.5932379 -0.5999014 -0.9511433 -0.1343765 -0.35629433 0.6555573 0.7325434 0.35507417 0.5203265 0.3655046 0.5673539 0.058457963 -0.4487447 -0.13679615 0.7717409 1.0295151 -0.19192964 0.02737622 -0.027374953 1.6573033 0.8335984 0.73916197 -0.63515806 -1.0802531 0.08189196 0.9653226 0.26643175 0.3073519 1.0620577 -0.71622115 0.10863608 -0.6898128 0.15436478 -0.102669075 -0.5986372 -0.53577393 0.021684363 0.69985026 1.1717901 0.7207221 -0.12597805 1.2042154 0.7448314 0.6290386 1.0793447 -0.4959592 -0.64265746 0.4962876 -0.5503422 -1.5641242 -0.230223 0.028041556 -0.32867727 0.14887328 -1.0088531 0.44384825 0.4819726 0.8817711 -0.5178357 -0.6511809 1.1101738 0.14227453 1.185591 -0.10353866 0.9722729 -0.87478983 -0.5575039 -0.8726596 1.0614603 0.8525619 -0.04990259 0.0065298527 -0.11113639 1.1406684 -0.4284569 0.12807077 0.15168534 0.022191145 0.73611873 -0.5272573 -0.7722235 0.7642557 -0.36724955 0.8531263 -1.19367 0.14032243 -0.9895334 -0.32883373 0.39427143 -1.2175193 0.43640798 1.1190017 -1.1752367 1.5661389 -0.7415146 -0.54675454 -0.38146934 -0.6769597 0.21644866 0.86016953 -0.5740229 0.6413334 -1.1707516 -1.1821568 -0.19582169 0.396495 -0.15483695 0.5273743 0.7092721 -0.74543417 0.022397894 0.2734959 0.63221455 0.16548654 -1.0724193 0.038324468 0.68866557 -0.15261462 -0.63365126 -0.30067718 0.50349903 -0.23112077 0.11960578 -0.045712873 0.094433784 0.49649853 0.93049693 -0.7486087 -0.34928307 0.49996108 -0.305341 -0.063251 -0.06570477 0.09684594 0.18485454 0.717908 0.3343242 0.08519691 0.034522817 -0.27165806 0.15631016 -0.77539885 0.17405848 1.683689 0.5239519 1.2497916 0.5611607 1.0181767 -0.029373318 -0.6770891 0.46499732 0.2172974 0.3666722 0.04584838 -0.57078224 0.66518813 -0.81894535 -0.05215326 0.012502298 -0.8928627 -0.3178988 -0.46593428 -0.79393727 -1.9213194 0.5068985 1.3197135 1.2364645 -1.45255 -0.85232043 0.44856834 0.60267466 0.2144876 0.04834974 -0.69518924 -0.9945618 -1.2645478 0.79524034 -0.54442215 1.1927556 -0.20079747 0.77363884 -0.78515863 1.3436675 0.029225133 0.63698006 0.8534167 -0.037563015 0.6732882 0.057775646 -0.3196979 0.20774974 0.47286573 -0.06803929 0.046250343 -0.27434495 0.30099714 1.5393617 1.108134 0.26760274 -0.15540749 0.921476 -1.1688486 0.85746765 -0.22466639 -0.021395871 0.7803647 -0.31060842 0.18626013 -0.47540578 0.47829446 -0.47558588 -0.90317845 0.38260508 0.6349797 0.07419452 -0.4145338 0.004643351 -0.6104534 -0.09254447 0.61197877 0.26902664 -1.351196 -0.31296137 -0.76280475 0.18514727 0.40200716 -0.03526922 0.43129063 0.12027379 0.4318756 0.28046834 -0.38818726 -0.18385103 0.34058017 0.59741473 -0.07305876 0.31382707 -1.7568421 -0.9524741 -0.40233895 0.579214 0.34407997 0.34250414 -0.33610603 0.16321872 -0.38427565 -0.15461119 0.20608637 -0.06707537 -0.4813802 -0.64281225 1.243617 1.5408939 -1.3781353 0.2569161 -0.16754518 -0.22486326 0.66126376 0.6274939 0.18172221 -0.31927007 -0.16000004 -1.0435753 0.001038894 0.30355567 0.962858 -0.7348839 -0.3509007 0.32219917 -0.10399893 0.40296143 0.19578248 0.31980693 -0.47610313 0.34109503 -0.32809353 1.0078338 0.14725995 -0.78980774 -0.001946114 -0.616292 0.6593171 -0.10590739 0.70699567 -0.13113253 0.0001190193 -1.1420386 -0.87659574 0.69016606 0.34776908 -1.1122795 0.40503216 0.6608998 -0.09246278 1.1275642 -0.69787085 0.9751314 0.7544949 -0.2858362 0.8109126 0.647257 -0.4942214 0.71294016 -0.66491085 0.6575065 -0.31943107 -0.73039424 0.95016086 -0.76247793 -0.66069555 0.97477484 -1.0281979 -0.44855827 -0.064542055 -1.573239 -0.47472024 -1.5946859 -0.20757532 -0.08237831 -0.9883057 -1.0042259 0.45809886 -1.1780539 0.43327633 0.0803442 0.8319399 0.12415984 -0.07372181 -0.2411286 -0.38712505 -0.469266 -0.70713735 0.074472785 -1.5068973 1.4138274 -0.10205808 0.8497169 0.18255855 -0.0700023 -0.5528977 -0.3090481 0.080661796 0.962603 0.15383652 -0.6744776 0.39286113 -0.1995992 -0.047465716 -0.068920754 0.7515035 -0.21500103 0.1553728 -1.1486874 -0.17359936 0.40786383 0.39043856 0.42624778 -0.5455793 0.16220175 -0.27534318 0.033211708 0.86349875 -0.23434317 0.3870793 0.8095436 0.79618824 0.1487529 0.20650262 0.5598966 -0.012107149 -0.069703475 -1.0319283 0.42649764 0.9543871 0.84643126 -0.019885406 -0.2483768 -0.8101835 -0.47742775 -0.7711569 0.05685065 0.12290945 -0.08241904 0.47841412
5d9b4e05cc054dbca02de8c2aa5aca15.jpg	0.18793565 -0.07464503 0.53519654 -1.3793758 -0.97739565 -0.26404682 -1.2568735 -0.6123585 0.5055085 -1.0646914 0.56710136 -0.275629 -0.29253885 0.21559598 -1.2890946 0.853927 -0.8257609 -2.3740673 0.35154712 -1.9727004 0.53646976 0.23916392 0.53596187 0.31596437 -0.37982166 0.07592112 -1.4118115 0.1447455 0.43004245 1.3082258 1.9376297 0.4523108 1.2944148 0.69570637 -0.601917 0.27240127 0.83533365 0.83884674 0.11824681 0.256881 0.6364918 0.60716414 0.39905646 -0.44168904 -0.89781356 0.36740378 -0.17937791 -0.522235 1.8733118 0.5175529 1.2560837 0.013267027 0.44712463 0.0133775845 -0.94889075 0.61896896 0.39466512 -0.22564764 -1.12238 -0.10676625 1.0623618 1.249993 0.062436923 1.3391778 0.19102672 0.3807375 -1.2005434 -0.85584223 0.91352737 -1.0219386 2.0588143 -1.1881778 -1.0298917 0.7743888 -0.6414959 0.26444668 0.10684036 -1.2458533 -0.36217374 0.05606036 -0.5792156 0.28753236 -0.013326658 0.11325543 1.2532277 -0.4772747 0.023727372 0.51574606 0.21880099 -0.16217253 -1.1071029 0.8336043 1.4150827 0.037578054 -0.28199545 -0.05830263 -0.9375656 0.061706483 0.26523992 0.7801311 -0.07136352 -0.012709063 0.3791161 0.43239367 0.59905744 0.518444 -1.0035721 0.6544556 0.987293 -0.7262459 1.3600678 -0.123585634 -0.13635075 -0.9424594 0.3991288 -0.23730186 -0.12663966 -0.5694531 0.30800673 0.4859001 -0.83817905 -0.18434848 0.18982172 -0.15955739 -0.5938825 1.0084449 1.0159796 -1.0993259 -1.3740703 -0.77471817 -1.0616099 0.6300199 -0.13993187 0.64522266 0.61268437 -0.60788035 1.4382062 -0.3493897 0.9192689 -0.6401607 -0.20906451 0.37902176 -0.18477641 -0.33075052 -0.39597806 0.20542416 0.19196501 0.8706068 -0.65691316 -1.9715204 -0.19993904 -0.5205204 0.3694313 0.66212296 -1.0218476 -0.67395365 1.8956689 -0.95746595 -0.83462036 0.9013761 0.73466533 -1.280734 0.6481509 0.6774528 -0.58973205 -0.82472396 -0.70292735 -0.4996557 -0.2883936 -0.74423313 -0.01763402 -0.34506616 -0.1823498 1.0290787 0.30184495 -0.80743265 -0.72711194 -0.2121073 -1.2731723 -0.5050633 -0.29653555 0.49647254 -0.16729677 0.3491345 -0.0942941 0.8569184 -1.2623552 -0.5966874 1.6628405 -0.026847322 -0.10213058 0.31863034 0.9206833 -0.48981714 -1.060296 -1.2872477 0.39945197 0.12302504 0.79630953 0.25797945 0.23637533 1.017869 0.85555416 -0.53778595 -0.015972473 0.6885792 -0.91265935 0.44055545 0.835013 0.4308137 -0.08670138 0.45057473 -1.0110667 -0.61736465 -0.3994128 -0.33723456 -0.5818024 -0.39323443 1.0818231 -0.29024395 -0.45082158 1.1387827 -0.10615867 -0.80705965 -0.25881517 0.50660014 0.31053272 0.8397926 0.09928566 0.21425386 -0.9980987 0.4890326 -2.0541186 0.27556586 -0.28944662 1.0347472 -0.46761692 0.31401238 -0.13871887 1.3469802 -0.3595677 -0.1439952 -1.119465 -1.059283 0.63496035 1.3384956 -0.05107048 -1.1123327 -0.0842945 -0.74260634 0.6133645 0.46737117 -0.75101024 -0.5633294 0.109412044 0.04801117 0.31654668 -1.4989872 -0.6304573 0.2328349 0.6901732 -1.4353054 -0.33111328 0.8007881 0.61381483 -0.5553279 -1.0277109 -0.72119534 0.1770951 -1.3764131 0.9906243 0.7156594 -0.49691033 0.20451973 0.22432595 -0.39196956 0.8392056 0.12849388 1.5653416 0.12652329 1.9214528 1.7591722 -0.2655523 0.26327413 -0.001831241 -0.35918963 0.264894 0.25888613 0.24957658 -0.6544662 0.45336306 0.54188466 -1.1793675 -0.012310479 0.5617775 -0.11116824 1.4194397 0.54492736 -0.005575657 -0.16452749 0.0077717453 -0.2720669 -0.579417 -0.050319515 -0.9889982 -0.16665715 -0.06925325 -0.28494036 0.64822817 -0.7579114 -0.48580903 -0.49884358 0.17134468 1.4561687 1.9871836 0.19225115 -0.73311454 0.5786619 0.6584182 -0.21419275 0.6914424 0.13392793 1.3207147 -0.13363515 0.059587955 0.14252532 -0.13015419 0.14987615 -0.15942027 0.6086399 0.01432975 0.1441985 -0.67485094 0.4974122 0.035229765 -0.9335017 -0.6392208 0.008203752 -0.04211287 -0.33460307 -0.3147192 1.0930604 -0.060117353 -0.069275275 -1.5921748 0.07545729 0.26010826 -0.19962828 -0.73389935 -1.3053293 0.32983577 -1.1133554 0.5325938 -0.3428814 -1.1362771 0.5909414 -0.10571693 -0.33231854 -0.0030919611 0.28588387 0.23132782 -0.6010635 0.23949389 0.85363895 0.3504515 -0.43382692 -0.5123562 -0.6176124 0.6518469 0.7673501 0.31233373 0.19812748 0.24354915 0.6061895 -1.2488384 1.9475805 -0.026979158 -1.5513562 0.82615864 -1.0571185 0.5627343 0.62834626 -1.0644513 1.0248618 0.90517247 0.025641426 0.93752605 -1.0258338 0.4278602 -1.41296 0.19840501 1.6316252 0.2948341 -0.37005323 -0.18637916 0.47349238 0.33553627 -0.09114483 0.91781586 -0.97255415 -0.9717376 0.46476412 -0.263483 -0.71083957 -0.88154197 0.26259384 -0.24729721 0.37886226 0.15385485 -1.6279749 -0.7833048 2.1034248 -0.9270315 -0.9141383 -0.93392116 0.98254967 0.26606685 -0.54068196 -0.14275181 0.52013457 0.5822879 1.2151027 0.4966781 -0.06489948 0.84084994 -0.24535637 -1.3122398 0.8246445 1.4772426 0.5032733 -0.3172257 0.32411963 0.4737498 -0.809837 -0.78197086 0.42170182 -0.099655956 -0.31891 1.8192978 0.62731504 -0.42805588 -0.31181523 -0.7201125 -0.93869585 0.43717375 -1.1528087 0.69358575 -1.1958443 -0.63224477 -0.9386631 -0.039110065 0.20609146 0.84589046 1.2436765 0.4607467 -0.32769328 -0.25794458 -0.05529335 -0.30940476 -0.23638025 0.9538267 -1.4692123 0.4762849 1.7491722 -0.85959005 -0.61855346 -1.2644702 0.07496705 0.56510144 -0.058733538 0.4645037 -0.51170164 0.6963066 -0.13704608 -0.13023447 0.47537857 -0.5878489 0.13196735 -0.76454604 -0.05642207 0.47434825 -0.37247372 0.3597193 0.83283544 0.29703614 0.16944069 0.33399516 0.63028675 0.056818962 0.48086265 0.4816587 1.0828425 -0.2027543 0.93778074 0.16108043 -1.1513022 0.0046042334 -1.0622314 0.28987294 0.18321928 -0.8343807 -0.18365784 0.0674645 -1.1073017 -0.46164906 1.3356947 1.7028956 -0.049989272 0.6235784 0.8275321 1.0726768 -0.89016724
